tree
version=v4
num_class=1
num_tree_per_iteration=1
label_index=0
max_feature_idx=29
objective=binary sigmoid:1
feature_names=Time V1 V2 V3 V4 V5 V6 V7 V8 V9 V10 V11 V12 V13 V14 V15 V16 V17 V18 V19 V20 V21 V22 V23 V24 V25 V26 V27 V28 Amount
feature_infos=[0:172792] [-56.40750963:2.45188849] [-72.715727560000005:22.057728990000001] [-48.325589360000002:9.3825584329999998] [-5.6831711980000001:16.491217169999999] [-113.74330670000001:34.801665880000002] [-26.16050594:73.301625549999997] [-43.557241570000002:120.58949389999999] [-73.216718459999996:20.007208370000001] [-13.434066319999999:15.594994610000001] [-24.588262440000001:23.745136120000002] [-4.7974734650000004:12.01891318] [-18.683714630000001:7.8483920759999997] [-5.7918812060000002:7.1268829589999996] [-19.21432549:10.526766050000001] [-4.4989446769999999:8.8777415980000001] [-14.12985452:17.315111519999999] [-25.162799369999998:9.2535262500000002] [-9.4987459209999994:4.2956482339999997] [-4.9327330549999999:5.5721133270000003] [-54.497720489999999:24.133894189999999] [-34.830382139999998:27.20283916] [-8.8870171409999994:10.503090090000001] [-44.807735200000003:22.528411689999999] [-2.836626919:4.5845491369999998] [-10.29539707:6.0708503839999999] [-2.2416202900000002:3.5173456120000002] [-22.565679320000001:31.612198110000001] [-15.43008391:33.84780782] [0:25691.16]
tree_sizes=3348

Tree=0
num_leaves=31
num_cat=0
split_feature=14 4 8 3 3 6 4 12 29 26 13 15 29 26 14 13 15 4 15 11 26 17 29 4 23 13 12 23 1 25
split_gain=3.79389e+07 1.96702e+06 1.13062e+06 872119 541807 475500 450310 399909 381306 321526 311902 282548 274400 406824 297184 489703 537808 282667 274142 261269 260502 228665 225041 217868 201009 193126 164577 163453 150535 143226
threshold=-1.7761102789999998 1.6152529605000001 -0.11574399649999999 -0.17156028099999998 -3.2018383949999998 -0.085277322999999974 0.46165784600000009 -1.3997637224999997 7.6250000000000009 0.47432884950000004 0.46592544750000003 0.31763485650000006 281.96500000000009 -0.49144438499999993 -0.65533909199999985 -0.88073499599999983 0.28079809350000001 0.052588673000000009 2.0098894350000003 2.2121662165000004 1.2041609805000002 2.1818794865000002 353.88500000000005 2.0209320440000007 -0.11548570149999998 -1.8371460909999999 -0.21119273699999996 -0.088637767999999992 0.51760536300000004 -0.14647143649999997
decision_type=2 2 2 2 2 2 2 2 2 2 2 2 2 2 2 2 2 2 2 2 2 2 2 2 2 2 2 2 2 2
left_child=3 4 10 7 6 8 -2 -1 -4 11 24 -9 14 17 15 16 -6 -14 -15 20 -17 -12 23 -13 25 -3 -8 -18 -26 -19
right_child=1 2 5 -5 12 -7 26 9 -10 -11 21 22 13 18 -16 19 27 29 -20 -21 -22 -23 -24 -25 28 -27 -28 -29 -30 -31
leaf_value=22.506934359169136 -6.4084258109605976 21.125156276937958 17.14904363820386 -6.4084258109605976 -6.4084258109605976 -6.4084258109605976 21.273299809908735 20.187934943852802 -6.4084258109605976 -6.4084258109605976 -6.4084258109605976 -6.4084258109605976 -6.4084258109605976 -6.4084258109605976 -6.4084258109605976 -6.4084258109605976 19.779712963542778 -6.4084258109605976 19.265026976427976 18.649436707846359 17.000631800915524 21.079892129742557 21.21613325928087 19.787918723032032 20.162576367913857 -6.4084258109605976 -6.4084258109605976 -6.4084258109605976 -6.4084258109605976 19.363955676138261
leaf_weight=244.56769900396466 3.2488128873519582 1.0483321459032597 4.9010933465324369 2.7585563198663285 4.0998568583745492 15.522489629685877 4.1708872618619353 21.705480280332274 2.6446234555914998 1.4776747245341528 2.706768654286861 2.8379640737548466 1.8833447715733225 13.835937987314535 220.10448373481631 32.866178832249716 5.5109565905295312 0.61282070935703803 1.1242873887531448 1.1519074770621944 1.2330414864700276 1.0500584014225749 2.0897592697292566 1.1018460670020429 15.208336742594835 1.6226801881566704 0.61627322039566923 0.66806088597513724 0.5524017661809929 4.4798869998194277
leaf_count=485 1882 31 534 1598 2375 8992 111 1048 1532 856 1568 1644 1091 8015 127504 19039 311 355 75 91 138 32 58 62 742 940 357 387 320 290
internal_value=7.80395 -3.35994 6.34738 21.5646 -4.84612 -1.40338 7.95914 21.8465 8.89262 16.3173 14.4054 17.5281 -5.20395 0.170707 -5.64779 -1.97068 7.63219 10.1421 -4.47902 -4.77079 -5.56194 1.27474 7.95297 0.917902 17.0818 4.39809 17.7097 16.9483 19.2313 16.2627
internal_weight=617.403 340.864 45.2568 276.539 295.607 23.0682 8.03597 273.78 7.54572 29.2127 22.1886 27.735 287.571 21.9363 265.634 45.53 10.2789 6.97605 14.9602 35.2511 34.0992 3.75683 6.02957 3.93981 18.4318 2.67101 4.78716 6.17902 15.7607 5.09271
internal_count=182463 176712 14691 5751 162021 11058 2350 4153 2066 3668 3633 2812 159671 9826 149845 22341 3073 1736 8090 19268 19177 1600 1764 1706 2033 971 468 698 1062 645
is_linear=0
shrinkage=1


end of trees

feature_importances:
V4=4
V13=3
V15=3
V26=3
Amount=3
V3=2
V12=2
V14=2
V23=2
V1=1
V6=1
V8=1
V11=1
V17=1
V25=1

parameters:
[boosting: gbdt]
[objective: binary]
[metric: auc]
[tree_learner: serial]
[device_type: cpu]
[data_sample_strategy: bagging]
[data: ]
[valid: ]
[num_iterations: 1000]
[learning_rate: 0.05]
[num_leaves: 31]
[num_threads: 0]
[seed: 0]
[deterministic: 0]
[force_col_wise: 0]
[force_row_wise: 0]
[histogram_pool_size: -1]
[max_depth: -1]
[min_data_in_leaf: 20]
[min_sum_hessian_in_leaf: 0.001]
[bagging_fraction: 0.8]
[pos_bagging_fraction: 1]
[neg_bagging_fraction: 1]
[bagging_freq: 5]
[bagging_seed: 3]
[bagging_by_query: 0]
[feature_fraction: 0.9]
[feature_fraction_bynode: 1]
[feature_fraction_seed: 2]
[extra_trees: 0]
[extra_seed: 6]
[early_stopping_round: 0]
[early_stopping_min_delta: 0]
[first_metric_only: 0]
[max_delta_step: 0]
[lambda_l1: 0]
[lambda_l2: 0]
[linear_lambda: 0]
[min_gain_to_split: 0]
[drop_rate: 0.1]
[max_drop: 50]
[skip_drop: 0.5]
[xgboost_dart_mode: 0]
[uniform_drop: 0]
[drop_seed: 4]
[top_rate: 0.2]
[other_rate: 0.1]
[min_data_per_group: 100]
[max_cat_threshold: 32]
[cat_l2: 10]
[cat_smooth: 10]
[max_cat_to_onehot: 4]
[top_k: 20]
[monotone_constraints: ]
[monotone_constraints_method: basic]
[monotone_penalty: 0]
[feature_contri: ]
[forcedsplits_filename: ]
[refit_decay_rate: 0.9]
[cegb_tradeoff: 1]
[cegb_penalty_split: 0]
[cegb_penalty_feature_lazy: ]
[cegb_penalty_feature_coupled: ]
[path_smooth: 0]
[interaction_constraints: ]
[verbosity: -1]
[saved_feature_importance_type: 0]
[use_quantized_grad: 0]
[num_grad_quant_bins: 4]
[quant_train_renew_leaf: 0]
[stochastic_rounding: 1]
[linear_tree: 0]
[max_bin: 255]
[max_bin_by_feature: ]
[min_data_in_bin: 3]
[bin_construct_sample_cnt: 200000]
[data_random_seed: 1]
[is_enable_sparse: 1]
[enable_bundle: 1]
[use_missing: 1]
[zero_as_missing: 0]
[feature_pre_filter: 1]
[pre_partition: 0]
[two_round: 0]
[header: 0]
[label_column: ]
[weight_column: ]
[group_column: ]
[ignore_column: ]
[categorical_feature: ]
[forcedbins_filename: ]
[precise_float_parser: 0]
[parser_config_file: ]
[objective_seed: 5]
[num_class: 1]
[is_unbalance: 0]
[scale_pos_weight: 577.287]
[sigmoid: 1]
[boost_from_average: 1]
[reg_sqrt: 0]
[alpha: 0.9]
[fair_c: 1]
[poisson_max_delta_step: 0.7]
[tweedie_variance_power: 1.5]
[lambdarank_truncation_level: 30]
[lambdarank_norm: 1]
[label_gain: ]
[lambdarank_position_bias_regularization: 0]
[eval_at: ]
[multi_error_top_k: 1]
[auc_mu_weights: ]
[num_machines: 1]
[local_listen_port: 12400]
[time_out: 120]
[machine_list_filename: ]
[machines: ]
[gpu_platform_id: -1]
[gpu_device_id: -1]
[gpu_use_dp: 0]
[num_gpu: 1]

end of parameters

pandas_categorical:[]
