tree
version=v4
num_class=1
num_tree_per_iteration=1
label_index=0
max_feature_idx=28
objective=binary sigmoid:1
feature_names=V1 V2 V3 V4 V5 V6 V7 V8 V9 V10 V11 V12 V13 V14 V15 V16 V17 V18 V19 V20 V21 V22 V23 V24 V25 V26 V27 V28 Amount
feature_infos=[-3.9224002516183423:3.9262377064363272] [-3.8563753292405969:4.4790842510257569] [-3.4950452224886051:3.6916245011978046] [-4.4656038635288775:3.7278333447631873] [-4.2953909840680051:3.5365316548733658] [-3.4213796212167207:3.4018755622099248] [-3.7261412750189695:3.495113213548938] [-4.4629685270801032:3.6055906836637801] [-3.4269830116774558:3.829782171340856] [-3.7051500079415161:3.7661800763391753] [-3.7826155101753232:3.5998117023435463] [-3.7011053323180247:3.7662336030221719] [-3.9993322490280514:3.3319889572628103] [-3.5635933339758665:3.7079051994403009] [-3.794637439378588:4.5621147236148909] [-3.6224709714522239:3.9768681877319989] [-3.681039807892954:3.2817728621973505] [-3.4017475688811696:3.4927577950530542] [-4.3740427988188326:3.2976102704582408] [-3.3567444387910945:3.7821878489966418] [-3.8695690918912842:3.6443055194177831] [-3.6507592585998143:3.678191444286667] [-4.4138859664312911:3.4677304184697548] [-3.6232408488824168:3.6055679132999532] [-4.4042139608771533:3.8639059871444266] [-3.8840702038285189:4.2193663437791429] [-3.6220302288156359:3.5260261945294373] [-3.8142052841744727:3.6370761906933708] [0.015663041812591299:736.08206121098317]
tree_sizes=2116 3391 3556 3540 3557 3537 3499 3452 3529 3526 3482 3479 3521 3506 3503 3552 3509 3574 3572 3590 3540 3524 3523 3578 3579

Tree=0
num_leaves=19
num_cat=0
split_feature=15 4 21 10 22 14 10 8 7 0 0 0 1 0 2 0 1 0
split_gain=1.4037e+06 784101 342283 217714 119697 9168.84 14914.3 162420 315.117 547.484 8.88178e-16 2.22045e-16 2.22045e-16 1.11022e-16 1.11022e-16 5.55112e-17 2.77556e-17 1.38778e-17
threshold=0.33678665846217759 -0.088541096164808833 0.17047641250751225 -0.14536861405095641 -0.35674735167830024 1.1836522463214552 -0.13808855123763422 2.089115286667202 1.3888168783288233 -1.2406742940033262 0.54343510327095135 0.71024092522251148 -0.39487330739385629 0.29521006325203941 0.03958433046407886 0.87445312742262515 -0.032102377715676693 0.78985040028133946
decision_type=2 2 2 2 2 2 2 2 2 2 2 2 2 2 2 2 2 2
left_child=10 2 3 -2 16 6 -6 -8 9 -7 -1 14 -12 -4 -3 17 -5 -13
right_child=1 11 13 4 5 8 7 -9 -10 -11 12 15 -14 -15 -16 -17 -18 -19
leaf_value=-6.9568048290777114 -6.9568048290777114 -6.9568048290777114 -6.9568048290777114 -6.9568048290777105 43.093245078013716 42.99324497225728 -6.9568048290777114 42.943394620145213 43.043195025079619 41.352373675169986 -6.9568048290777114 -6.9568048290777096 -6.9568048290777114 -6.9568048290777114 -6.9568048290777114 -6.9568048290777114 -6.9568048290777105 -6.9568048290777105
leaf_weight=2.9030941158998766 0.25474501017015416 0.53246702125761458 0.25674301024992008 0.066933002672158182 0.99800097942352284 0.99999897950328875 0.19480500777717691 1.0009979795431718 1.9979999589268116 1.0339649808593097 0.36863101471681148 0.030969001236371696 0.76123803039081372 0.18781200749799609 0.427572017069906 0.25674301024992019 0.064935002592392155 0.036963001475669444
leaf_count=2906 255 533 257 67 1 3 195 4 4 37 369 31 762 188 428 257 65 37
internal_value=17.2621 28.9713 35.5121 38.3673 40.1834 41.1818 38.5805 34.8143 42.5972 42.1591 -6.9568 -6.9568 -6.9568 -6.9568 -6.9568 -6.9568 -6.9568 -6.9568
internal_weight=12.3746 8.34165 7.05694 6.61238 6.35764 6.22577 2.1938 1.1958 4.03196 2.03396 4.03296 1.28471 1.12987 0.444555 0.960039 0.324675 0.131868 0.067932
internal_count=6399 2362 1076 631 376 244 200 199 44 40 4037 1286 1131 445 961 325 132 68
is_linear=0
shrinkage=1


Tree=1
num_leaves=30
num_cat=0
split_feature=4 21 10 22 12 13 17 5 26 22 18 7 1 1 24 20 3 4 0 0 0 0 8 0 1 24 24 24 0
split_gain=397.525 582.031 1055.38 1670.61 3217.34 1121.86 970.549 819.698 2001.15 871.968 364.714 401.22 288.66 1239.03 109.901 367.49 49.7542 45.3062 36.5922 4.44089e-16 2.22045e-16 2.22045e-16 2.22045e-16 5.55112e-17 5.55112e-17 2.77556e-17 1.38778e-17 1.38778e-17 6.93889e-18
threshold=-0.13185835084850259 0.1410214255482258 -0.13808855123763422 -0.20626882173571118 -1.4477620230817021 -2.12636106308311 -1.9853305944827444 1.0912103074166291 0.14002403694540189 -0.19574179832351082 -1.4059842538688223 -1.980199505767186 0.79012837777309108 0.98443314557712214 0.24067937518316476 -0.76074824239849315 -1.6814964625414683 -1.4249417979893899 -0.039724768804183443 2.062032568294907 0.80874513814141824 2.062032568294907 1.6587566797505053 0.93846191432747117 0.76424009877799881 -0.26714459160068332 -0.43998196905440984 -0.70718941627607823 0.058529199038721259
decision_type=2 2 2 2 2 2 2 2 2 2 2 2 2 2 2 2 2 2 2 2 2 2 2 2 2 2 2 2 2
left_child=1 2 20 16 -5 -6 -7 9 -9 -8 -11 -12 14 -14 23 -16 -4 -17 -15 -2 -1 22 -3 25 -18 26 27 -13 -19
right_child=19 21 3 4 5 6 7 8 -10 10 11 12 13 18 15 17 24 28 -20 -21 -22 -23 -24 -25 -26 -27 -28 -29 -30
leaf_value=-0.050047606850045251 -0.050047606850045348 -0.050047606850045369 -2.6807309649773874 -23.965350862553549 -35.125825715206233 -22.598762105084486 -26.356881188117178 -0.050047606850043426 -20.638004322629406 -8.1444579395496461 -13.203464397486124 -0.050047606850046202 -17.587936661032032 -2.8191879838261875 -8.8189921339411406 -2.9730291158804105 -0.050047606850045161 -0.050047606850043419 -0.05004760685004396 -0.050047606850044668 -0.050047606850045001 -0.050047606850043128 -0.050047606850043863 -0.050047606850037465 -0.050047606850044703 -0.050047606850041684 -0.050047606850042753 -0.050047606850043017 -0.050047606850043093
leaf_weight=0.51317464560270343 3.3451384305953993 1.1128287222236388 0.01900646835565567 0.020907115191221015 0.0028509702533481831 0.0066522639244788176 0.0038012936711312442 0.025658732280135155 0.021857438609004021 0.024708408862352427 0.0076025873422620452 0.056069081649184012 0.014254851266741753 0.018056144937872887 0.017105821520090103 0.017105821520090096 0.25658732280135166 0.037062613293528786 0.03516196645796299 0.062721345573663601 0.13494592532515526 0.024708408862352482 0.051317464560270643 0.022807762026788109 0.074125226587057114 0.046565847471356642 0.01900646835565567 0.02090711519122123 0.021857438609004021
leaf_count=541 3521 1171 21 32 5 10 6 27 32 30 10 59 20 20 21 19 270 40 37 66 142 26 55 26 78 49 20 22 23
internal_value=-0.406329 -0.868567 -1.54535 -2.77254 -4.82278 -3.86782 -3.65372 -3.34603 -9.52051 -2.53573 -2.28299 -1.84881 -1.58397 -4.49627 -0.823778 -2.19754 -0.19302 -0.707718 -0.989577 -0.0500476 -0.0500476 -0.0500476 -0.0500476 -0.0500476 -0.0500476 -0.0500476 -0.0500476 -0.0500476 -0.0500476
internal_weight=6.03455 2.62669 1.43784 0.789719 0.44 0.419093 0.416242 0.409589 0.0475162 0.362073 0.358272 0.333564 0.325961 0.067473 0.258488 0.0931317 0.349719 0.0760259 0.0532181 3.40786 0.648121 1.18885 1.16415 0.165356 0.330713 0.142549 0.0959827 0.0769762 0.0589201
internal_count=6399 2812 1560 877 508 476 471 461 59 402 396 366 356 77 279 103 369 82 57 3587 683 1252 1226 176 348 150 101 81 63
is_linear=0
shrinkage=0.05


Tree=2
num_leaves=31
num_cat=0
split_feature=14 15 4 21 10 22 15 4 15 1 12 24 12 3 4 10 21 4 22 5 10 1 4 21 17 22 21 3 0 4
split_gain=2154.34 5087.22 16396.2 28153.8 82555 204186 338608 205.05 53.0521 48.196 10.1116 213.075 55.4543 4.10427e-12 1.011e-11 2.66629e-11 4.69102e-11 1.55076e-12 3.21551e-12 7.69841e-12 1.25705e-12 9.25482e-13 1.65679e-12 5.38974e-12 1.81258e-12 6.83925e-13 1.81469e-12 4.95382e-13 1.5582e-13 1.4877e-13
threshold=1.1836522463214552 0.38668290724139781 -0.19674215415893428 0.12467136422167006 -0.26789042139273544 -0.56947106985451257 2.0747520373258097 -0.021296832146574147 0.32397480015170593 2.7107524402309116 -1.4477620230817021 -2.0719016844391258 -1.4687642700794907 -1.6814964625414683 -0.21772521830439798 -0.034480116158268438 0.40783409125019826 -1.7200357107383832 0.83251776311308401 -0.21946998075909965 0.85100430067846755 1.0216919984790056 -0.13185835084850259 -1.1183451946092908 -1.5538152753157073 0.6330870000434452 0.0086885365238685511 -1.7167313816177268 -1.153699302485111 -1.4249417979893899
decision_type=2 2 2 2 2 2 2 2 2 2 2 2 2 2 2 2 2 2 2 2 2 2 2 2 2 2 2 2 2 2
left_child=9 8 3 4 -3 -6 -7 -4 27 10 11 -1 -13 14 15 -12 -17 18 20 -20 -15 29 23 -23 -25 28 -27 -2 -26 -19
right_child=1 2 7 -5 5 6 -8 -9 -10 -11 13 12 -14 17 -16 16 -18 21 19 -21 -22 22 -24 24 25 26 -28 -29 -30 -31
leaf_value=-11.11177564034746 -0.050045001565942382 -0.05004528073929243 -5.8720060820792206 -3.019568538238067 -0.050044781475872352 -967.65240380710009 -0.0500452807392682 -0.050045280739295511 -2.8154813829967775 -2.5122518579846087 -0.050045280739294776 -0.050045280739295699 -2.9610296720594595 -0.050045280537403564 -0.050045280739292777 -0.050040996200366852 -0.050045280739292188 -0.050045219555874515 -0.050043616503192979 -0.050045280739290522 -0.050044911269018201 -0.050044331600277839 -0.050045280739295754 -0.050044495624768481 -0.050045103722587227 -0.050044683276309843 -0.050045280739294422 -0.050045274812159736 -0.050045280739295199 -0.050045280637466688
leaf_weight=0.0045200884570415481 0.017290234609427801 0.014464264735579489 0.017176343495742596 0.033609054245368641 0.0054893243723199703 0.0018085941385107013 0.0018080330919474363 0.12656231643632049 0.018080330967253255 0.020290639280574285 0.045200827298685908 0.34443030401676822 0.017176320100673492 0.12475483974121057 0.14283461426384364 0.012079324462597352 0.013560248189605772 0.10229995513841572 0.011286595624440565 0.018080330920511228 0.02826826506466773 0.020343256852768304 0.34985440329182882 0.0092105429430375529 0.013617040684042653 0.020172326483589131 0.03435262874700129 0.40776839730462622 0.14283461426488778 3.4614871403355183
leaf_count=6 22 16 22 37 7 40 2 140 21 23 50 403 20 143 158 35 15 121 22 21 37 33 387 13 17 28 38 457 161 3904
internal_value=-0.435258 -3.15505 -9.75452 -32.401 -74.2963 -192.232 -483.926 -0.745752 -0.162877 -0.0804221 -0.0703855 -0.323175 -0.188317 -0.0500453 -0.050045 -0.0500446 -0.0500433 -0.0500453 -0.0500451 -0.0500446 -0.0500452 -0.0500453 -0.0500452 -0.0500451 -0.0500452 -0.0500452 -0.0500451 -0.0500453 -0.0500453 -0.0500453
internal_weight=5.58071 0.644057 0.200918 0.0571793 0.0235702 0.00910595 0.00361663 0.143739 0.443139 4.93665 4.91636 0.366127 0.361607 4.55024 0.213675 0.0708404 0.0256396 4.33656 0.18239 0.0293669 0.153023 4.15417 0.590385 0.24053 0.220187 0.210977 0.054525 0.425059 0.156452 3.56379
internal_count=6399 764 264 102 65 49 42 162 500 5635 5612 429 423 5183 258 100 50 4925 223 43 180 4702 677 290 257 244 66 479 178 4025
is_linear=0
shrinkage=0.05


Tree=3
num_leaves=31
num_cat=0
split_feature=20 14 15 3 14 5 12 26 1 3 20 12 19 12 28 15 21 12 23 16 3 10 21 22 15 5 19 14 5 3
split_gain=4.20378e+07 1.17824e+07 8.37213e+07 3.2563e+08 56.706 173.469 54.3432 53.744 49.1397 52.917 15.5881 13.803 78.858 3.59782 60.2079 2.04218e-11 2.41466e-11 1.74647e-11 1.41991e-11 7.7306e-12 3.7641e-12 6.13853e-12 1.60212e-11 3.31249e-11 3.70402e-12 4.74825e-12 1.19856e-12 1.02407e-12 1.60698e-12 5.15726e-13
threshold=-2.7146729548528215 1.46653417749915 0.9530306607503517 0.79099885540809411 1.325846788341096 0.74804469779228133 1.5959232489947714 2.5911429858410613 2.4486996469571425 0.86160262050076419 2.6877370016478892 -2.2187385537385813 -0.89631222081131245 -1.4477620230817021 5.6899883406406513 0.32397480015170593 -0.14032018988534381 -1.493838081169703 -1.673231628911479 0.52850008551112382 -1.6814964625414683 -0.034480116158268438 -0.086615482778695338 -0.057137961804644789 0.32397480015170593 0.044086894329347107 -0.21180004895420682 1.2824410141891025 -0.075742359162668887 -1.5962911867064158
decision_type=2 2 2 2 2 2 2 2 2 2 2 2 2 2 2 2 2 2 2 2 2 2 2 2 2 2 2 2 2 2
left_child=-1 4 6 26 7 10 15 8 11 -10 18 12 -2 14 -13 29 -17 -16 -6 -19 21 -15 23 -23 -20 -26 -4 -22 -29 -3
right_child=1 2 3 -5 5 -7 -8 -9 9 -11 -12 13 -14 20 17 16 -18 19 24 -21 27 22 -24 -25 25 -27 -28 28 -30 -31
leaf_value=2151.2024528692068 -4.7181624167857317 -0.050042757131138774 -0.050042416738007738 10557.796693163573 -0.050036873035011156 -5.7837412133360502 -2.948004820337812 -2.8100486043155142 -0.050037445332007373 -5.255982773304634 -1.2852176217580566 -3.25104646592971 -0.05004307207076935 -0.050043072081948616 -0.050043072074420193 -0.050042703993520336 -0.050040050738872736 -0.050040636795828319 -0.05004303426334742 -0.050042632777044918 -0.050043055113566895 -0.050039699912926984 -0.050042993540577153 -0.05004307134650561 -0.050041576875098109 -0.050043050854108123 -0.050043056160612158 -0.05004234641543466 -0.050043066288756079 -0.050043072079247575
leaf_weight=0.023219031747429564 0.01070273818917386 0.01386778935196975 0.011361485192992404 0.0094621566779551358 0.0010151698036224835 0.017440742589152902 0.017253505089113386 0.018115543774911091 0.01002932655319444 0.0095097027369774878 0.03739040344953537 0.015620096770668779 0.058477573410113975 0.11695512023288757 0.22703056719321377 0.025168768205276137 0.013006364107543994 0.01097585251412863 0.05767162038682766 0.0086934093855138631 4.1656885345246559 0.013148234065738507 0.059453817786560836 0.016339597293595964 0.011605115725387805 0.010324672670776636 0.020646792998149976 0.013133217595580504 0.018921762991567337 0.20725136576319023
leaf_count=28 14 19 26 18 5 32 22 23 30 10 1 23 74 136 281 38 39 27 68 14 4984 32 71 24 29 14 29 22 24 242
internal_value=28.4203 18.9893 313.926 2408.9 -0.120466 -1.12931 -0.230843 -0.0918356 -0.0814791 -2.58379 -0.441407 -0.0711536 -0.772238 -0.0607589 -0.24065 -0.0500429 -0.0500418 -0.0500429 -0.0500427 -0.0500415 -0.050043 -0.0500428 -0.0500425 -0.0500416 -0.0500428 -0.0500423 -0.0500428 -0.0500431 -0.0500428 -0.0500431
internal_weight=5.24948 5.22626 0.318018 0.0414704 4.90824 0.135448 0.276548 4.7728 4.75468 0.019539 0.118007 4.73514 0.0691803 4.66596 0.26232 0.259294 0.0381751 0.2467 0.0806166 0.0196693 4.40364 0.205897 0.0889416 0.0294878 0.0796014 0.0219298 0.0320083 4.19774 0.032055 0.221119
internal_count=6399 6371 433 73 5938 149 360 5789 5766 40 117 5726 88 5638 345 338 77 322 116 41 5293 263 127 56 111 43 55 5030 46 261
is_linear=0
shrinkage=0.05


Tree=4
num_leaves=31
num_cat=0
split_feature=20 2 14 15 3 8 3 12 27 28 24 20 1 15 4 9 21 15 12 12 3 17 4 10 21 4 22 5 14 1
split_gain=40055.9 12395 995.823 8124.05 25735.7 142.372 368.702 22.6871 153.984 148.795 18.7495 4.23333 0.258437 1.83445e-11 2.66425e-11 2.9545e-11 3.44354e-11 1.50854e-11 1.354e-11 1.26079e-11 3.24807e-12 6.98336e-12 4.53429e-12 1.46806e-11 2.11866e-12 1.44862e-12 2.37121e-12 5.41143e-12 1.17428e-12 6.51923e-13
threshold=-2.4814463164626583 -1.1050654115827296 1.3761719789590676 1.049729360279744 0.47262139304984357 -1.2107188701374023 -0.21661259902735291 -1.4477620230817021 -2.2075889356873497 5.6899883406406513 -2.0719016844391258 2.6877370016478892 2.7107524402309116 0.28799734387899295 0.016276844854278456 -0.65984047291387726 -0.74156705985615246 0.46583985770763153 -1.493838081169703 1.3026875268037175 -1.6814964625414683 -1.5872083834665065 -0.26060159442096037 0.05379670288387086 0.14910554841205662 -1.6328230319641051 0.83251776311308401 -0.26431649877897767 0.72096078246379791 1.4589326027321543
decision_type=2 2 2 2 2 2 2 2 2 2 2 2 2 2 2 2 2 2 2 2 2 2 2 2 2 2 2 2 2 2
left_child=1 -1 7 5 24 6 -4 8 -2 -10 -11 12 20 19 15 -15 -17 -16 -12 -7 21 -9 23 -23 -5 26 28 -28 -22 -27
right_child=2 -3 3 4 -6 13 -8 11 9 10 18 -13 -14 14 17 16 -18 -19 -20 -21 25 22 -24 -25 -26 29 27 -29 -30 -31
leaf_value=-33.388472706683643 -8.4694442724398051 -116.30029268954111 -13.163050372552078 -0.050040956758341082 -102.81377190811375 -0.05004094687724845 -0.050040856364247301 -0.0500392570378832 -7.9219566578293383 -1.2133535975252052 -0.050040941602367876 -0.34227643727142648 -0.10226528846336978 -0.050040219449131076 -0.050038512271294647 -0.050040141237559115 -0.050032724092801642 -0.050040970189768968 -0.050039518445011089 -0.050039529547162925 -0.050040932400362149 -0.050040970090758134 -0.050040955000225165 -0.050039239841744569 -0.050039961630154298 -0.050040953608717076 -0.050039464469686906 -0.050040873165717585 -0.050040514598216894 -0.050040872859039569
leaf_weight=0.0089986236416734755 0.0059366936584747112 0.0090322384953934742 0.0076251263577660202 0.014729878445677969 0.0082713941596921359 0.20463613673639169 0.018049926074264477 0.0077094365187804206 0.0063516546083539618 0.039513465610114373 0.26278719433147929 0.13018212816677976 0.2511066287304401 0.0066732210393638525 0.0078645569055879605 0.0025081732214857766 0.004160715751134858 0.030268127622548491 0.017848058316370874 0.016993568242469337 0.14411819663807646 0.038448795608175615 0.13012263545533359 0.017997920499269557 0.0083981211821537727 3.5273450581376755 0.010213344482338016 0.020503273661423127 0.019039384555071592 0.2690029140596043
leaf_count=17 10 35 14 26 32 265 28 15 31 7 354 24 23 14 21 9 33 37 38 34 188 48 160 39 18 4447 22 29 30 351
internal_value=-0.526001 -74.9217 -0.269438 -2.92723 -27.1206 -0.384697 -3.94442 -0.0902815 -0.48907 -0.343965 -0.193619 -0.0612455 -0.0529974 -0.0500406 -0.0500398 -0.0500379 -0.0500355 -0.0500405 -0.0500409 -0.0500408 -0.0500409 -0.0500407 -0.0500408 -0.0500404 -0.0500406 -0.0500409 -0.0500408 -0.0500404 -0.0500409 -0.0500409
internal_weight=5.24644 0.0180309 5.22841 0.330179 0.0313994 0.29878 0.0256751 4.89823 0.332437 0.3265 0.320149 4.56579 4.43561 0.273104 0.0514748 0.0133421 0.00666889 0.0381327 0.280635 0.22163 4.1845 0.194279 0.186569 0.0564467 0.023128 3.99022 0.193874 0.0307166 0.163158 3.79635
internal_count=6399 52 6347 531 76 455 42 5816 440 430 399 5376 5352 413 114 56 42 58 392 299 5329 262 247 87 44 5067 269 51 218 4798
is_linear=0
shrinkage=0.05


Tree=5
num_leaves=31
num_cat=0
split_feature=24 2 20 12 2 14 15 3 14 8 8 15 20 1 1 12 12 15 4 14 3 4 10 22 1 23 4 12 12 19
split_gain=1.34394e+06 520576 49389.6 38162.5 3243.41 951.312 9010.93 15020.6 134.773 85.9789 63.1733 188.527 2.95341 2.86682e-11 3.32502e-11 1.38922e-11 1.03855e-11 9.53107e-12 1.30592e-11 4.70334e-12 3.24762e-12 5.54501e-12 1.19113e-11 2.49436e-11 2.08783e-12 3.05232e-12 2.32586e-12 1.35314e-12 1.92613e-11 1.31697e-12
threshold=1.2626832446166156 1.137222515289676 -2.2891830232558648 0.17426195297103533 1.1575101316211691 1.46653417749915 1.049729360279744 -0.39516600427708631 1.7067512161461551 -1.3379954002940775 2.1832349084875529 0.8699869882157385 2.6877370016478892 2.3146989109871963 2.4486996469571425 1.1110837511060654 1.3301633894119256 0.32397480015170593 0.35741439490347715 2.0308040800620946 -1.6814964625414683 -0.26060159442096037 -0.29791826127317428 0.031411052048414205 1.4848253112936731 -0.096924566125842437 -1.5526200425877748 -1.4233101847605798 -1.4687642700794907 -2.3928464388660688
decision_type=2 2 2 2 2 2 2 2 2 2 2 2 2 2 2 2 2 2 2 2 2 2 2 2 2 2 2 2 2 2
left_child=2 8 3 -1 -3 10 9 -8 24 -7 12 -12 13 20 -15 17 -17 -11 19 -19 21 22 -4 -24 26 -26 -2 28 29 -22
right_child=1 4 5 -5 -6 6 7 -9 -10 15 11 -13 -14 14 -16 16 -18 18 -20 -21 27 -23 23 -25 25 -27 -28 -29 -30 -31
leaf_value=-40.638491132367868 -0.050038383009193756 64.201621399566875 -0.050038928893262294 -228.46046990947309 59.714760018580151 -4.5987800910599814 -0.050038828626553233 -89.515885091595152 -3.6790294214672019 -0.05003895919637226 -0.050038929959960836 -6.4341060889248558 -0.27365256714413738 -0.050038827338841296 -0.050034919878844203 -0.050038741730392036 -0.050036354330977972 -0.050035853187553714 -0.050038865756802733 -0.050037807341815101 -0.050037510268063835 -0.050038935060989879 -0.050035730938459436 -0.050038864290941933 -0.050037819713733223 -0.050038870153000764 -0.050038934809639446 -0.050038947993013429 -0.050036903267847023 -0.050038940922809895
leaf_weight=0.0086231422756081061 0.020201999709657525 0.77741181850433327 0.035836745410051662 0.0039402753827744311 0.83577625913859244 0.01099190462538463 0.011717474457327626 0.0078242148124445521 0.027340012708464201 0.14089428987895611 0.045184724727552417 0.015542030144784391 0.15369073103121333 0.012499918444521696 0.0096453644425196217 0.0078309677373908926 0.010890055435098134 0.0068025367530406278 0.017169268819998251 0.0056254746923514176 0.0016203413670154978 0.10515658572762868 0.011110790870688461 0.014828205070807801 0.011250606911841574 0.017947701719094791 0.34896555813976154 3.3396738249224178 0.01236727313105887 0.2211778759085358
leaf_count=28 34 1 47 35 80 30 21 36 30 186 63 13 22 18 40 12 32 29 23 11 5 138 33 26 23 24 481 4479 37 346
internal_value=15.5779 48.8985 -0.556752 -99.5453 61.877 -0.260513 -3.46306 -35.8709 -0.283103 -0.29978 -0.083618 -1.68394 -0.0588115 -0.0500389 -0.0500371 -0.0500386 -0.0500374 -0.0500388 -0.050038 -0.0500367 -0.0500389 -0.0500387 -0.0500383 -0.0500375 -0.0500389 -0.0500385 -0.0500389 -0.0500389 -0.0500388 -0.0500389
internal_weight=6.24954 2.03889 4.21064 0.0125634 1.61319 4.19808 0.219746 0.0195417 0.425706 0.200204 3.97833 0.0607268 3.91761 3.76392 0.0221453 0.189213 0.018721 0.170492 0.0295973 0.012428 3.74177 0.166932 0.0617757 0.025939 0.398366 0.0291983 0.369168 3.57484 0.235165 0.222798
internal_count=6383 673 5710 63 81 5647 380 57 592 323 5267 76 5191 5169 58 293 44 249 63 40 5111 244 106 59 562 47 515 4867 388 351
is_linear=0
shrinkage=0.05


Tree=6
num_leaves=31
num_cat=0
split_feature=20 2 24 24 24 7 24 3 23 27 5 9 27 24 21 19 8 7 20 24 8 20 20 1 1 26 13 3 4 10
split_gain=280284 11512.4 428645 879037 1.29397e+06 256.11 249.011 125.311 484.224 187.982 518.957 117.741 175.62 84.5627 677.455 110.246 65.089 36.7313 1.77521 1.53074 0.00430897 1.61632e-10 2.37168e-11 1.97034e-11 1.55915e-11 9.43423e-12 3.37705e-12 2.99449e-12 7.36569e-12 2.70714e-12
threshold=-2.2891830232558648 1.1575101316211691 1.127421445670983 1.1882650243959605 1.2100847165589361 -2.6351421474373198 -2.7374837897687962 0.79099885540809411 1.8416968655178623 -1.485698025800841 -0.77331906694851138 -1.7292664541632139 0.33760812081290498 -1.1587580467985574 -1.2944371337329084 -1.3407770342078027 1.8288463378192381 1.7966499361403263 2.6877370016478892 2.4234934323078976 2.1832349084875529 2.3946023503304663 1.7697898467778035 2.3146989109871963 2.4486996469571425 2.1893813745402291 -0.06785730515842138 -1.6814964625414683 -1.3848716954550906 0.85100430067846755
decision_type=2 2 2 2 2 2 2 2 2 2 2 2 2 2 2 2 2 2 2 2 2 2 2 2 2 2 2 2 2 2
left_child=-1 5 16 -4 -5 -2 -7 19 9 10 -9 12 -11 14 -13 -16 22 18 -15 20 21 23 -3 25 -25 27 -27 28 -8 -30
right_child=1 2 3 4 -6 6 7 8 -10 11 -12 13 -14 17 15 -17 -18 -19 -20 -21 -22 -23 -24 24 -26 26 -28 -29 29 -31
leaf_value=-562.91183854529925 -6.835219585018141 -0.050037003472006507 -0.050036903103856292 -0.050037070530859373 -1698.1162426684959 -6.6084932833023222 -0.050035439792602103 -12.664787227035536 -9.2569627426244701 -7.9888065906677062 -0.05003703292532783 -19.315956852002628 -0.050036978490564148 -0.050037016486772737 -6.1875964849572522 -0.050037062678392669 -3.4177442642626725 -2.027918096094786 -0.23405292181034279 -0.19196517024522622 -0.05804359555075092 -0.050032376577090171 -0.050035024793557092 -0.050036783949736686 -0.050034004548023203 -0.050036492617207488 -0.050035178078368804 -0.050037028690543744 -0.05003696551715886 -0.050036274363110214
leaf_weight=0.0022207938018253817 0.0147282195087034 0.41089532685123364 0.0089254018336827334 0.0022207938018254944 0.002267284977278905 0.015247489674948045 0.0093218311895208184 0.011890841793182005 0.016292083275402547 0.012596410476817144 0.025935730926903489 0.0051905126156270845 0.015586428999085911 0.59385698641380869 0.0081465606259598644 0.071820208073179237 0.014846895913528613 0.025279577207584225 0.16817935329163447 0.20404003866315168 0.17849211165466083 0.019050677479896083 0.015723712331237039 0.010448250046468543 0.0097583141289305786 0.011291639839328127 0.0086120874402694225 2.6562410857431109 0.12919118073426888 0.015912623177458479
leaf_count=73 24 604 16 3 82 23 25 21 27 21 41 12 22 880 14 103 23 39 2 33 62 34 24 17 28 20 21 3867 192 30
internal_value=-1.33061 -1.0648 -8.62374 -287.075 -857.878 -0.253305 -0.230347 -0.207231 -0.710871 -0.562511 -4.0155 -0.417489 -3.5983 -0.314742 -1.81148 -0.675297 -0.163296 -0.152852 -0.0906488 -0.0593804 -0.0505058 -0.050037 -0.0500369 -0.050037 -0.0500354 -0.050037 -0.0500359 -0.050037 -0.0500368 -0.0500369
internal_weight=4.69421 4.69199 0.454879 0.0134135 0.00448808 4.23711 4.22238 4.20713 0.954775 0.938483 0.0378266 0.900656 0.0281828 0.872473 0.0851573 0.0799668 0.441466 0.787316 0.762036 3.25236 3.04832 2.86983 0.426619 2.85078 0.0202066 2.83057 0.0199037 2.81067 0.154426 0.145104
internal_count=6383 6310 752 101 85 5558 5534 5511 1182 1155 62 1093 43 1050 129 117 651 921 882 4329 4296 4234 628 4200 45 4155 41 4114 247 222
is_linear=0
shrinkage=0.05


Tree=7
num_leaves=31
num_cat=0
split_feature=2 14 24 10 25 14 3 12 7 0 19 2 14 3 5 14 18 0 3 2 7 24 9 27 23 2 5 11 13 8
split_gain=7.3146e+06 1.94951e+08 2763.38 517.214 629.366 514.137 1587.03 464.047 179.734 498.894 136.555 275.627 80.6418 442.106 59.7673 1076.26 2370.01 168.759 1601.71 95.5271 415.509 114.906 85.9835 58.8924 319.045 259.505 122.315 479.7 74.9072 59.7808
threshold=1.744239694285284 -1.6491730130010007 -2.7374837897687962 -2.3445924896779702 -0.49916317601996563 2.1933413073184282 0.26806276312753452 -1.9612097600885321 2.4446856547206042 -0.45746745221220253 2.4233226138888067 -0.34863880583971923 1.8900810142304785 0.65733909811896363 -0.77331906694851138 1.46653417749915 0.29215222000733737 -1.4973521568921964 -1.4181038440207236 -1.240576762646495 -1.1544998743122137 -1.2572540067694098 -2.0536805441093495 1.3155563758669147 -2.4436645671438386 -2.2423182408228546 1.3296491168690274 -0.54062612314873826 -1.658018006975664 2.4053830292196889
decision_type=2 2 2 2 2 2 2 2 2 2 2 2 2 2 2 2 2 2 2 2 2 2 2 2 2 2 2 2 2 2
left_child=2 -2 -1 4 -4 8 -7 -3 10 -10 12 -12 14 -14 15 17 -17 18 -5 20 -19 -22 -21 29 -25 -26 28 -28 -27 -16
right_child=1 7 3 5 -6 6 -8 -9 9 -11 11 -13 13 -15 23 16 -18 19 -20 22 21 -23 -24 24 25 26 27 -29 -30 -31
leaf_value=-70.030384466080307 10133.216800653312 -23.644023007744071 -19.396215519760592 -30.165080818712177 -2.5837019539599253 -0.050035071675102363 -27.045228262113934 -0.050035081366165704 -17.679650664730925 -0.050033409426968614 -10.973715908381616 -0.05003491661045259 -0.050034860091973277 -13.687412700725364 -0.16275164882728219 -0.05003495389781553 -35.514406781657932 -12.959836384364165 -0.050035128937338282 -4.4733424216431921 -6.5049382589454199 -0.050035137881197657 -0.083186995551071355 -17.559332496085737 -14.250822110982302 -3.9946982558722723 -15.811844754905039 -0.050034863059440139 -0.050035177984039683 -3.2756354742602394
leaf_weight=0.0014289725673951583 0.0049293086631223551 0.0021191839336249787 0.0077534685252658156 0.0049808989334678691 0.019734245038311005 0.020534572858321165 0.0074087259993405033 0.12554926145597556 0.0056722734100276275 0.013717871338940202 0.0091544236056506634 0.015641019287511493 0.031356066630583816 0.0073327874760268979 3.0753295540801751 0.014201534972044684 0.0070493283542708536 0.0077460527101922408 0.038880048345684148 0.01130375914107884 0.0077460497850552193 0.06271821496524721 0.83674749289553563 0.0028556256729643783 0.0035209316581542574 0.012675354024395291 0.0063444488481652064 0.020185668711663052 0.23819980383602452 0.015500981510399359
leaf_count=26 11 7 16 12 33 37 31 234 12 28 15 27 67 26 4011 37 19 14 63 22 12 97 1031 6 7 20 14 37 380 31
internal_value=10.2609 376.276 -0.510423 -0.488368 -7.32601 -0.446385 -7.20739 -0.441675 -0.403919 -5.20729 -0.382892 -4.08303 -0.362063 -2.63476 -0.341923 -0.683237 -11.8143 -0.439408 -3.46993 -0.295905 -1.96794 -0.759615 -0.141704 -0.241654 -0.930994 -0.761966 -0.59076 -3.81934 -0.249337 -0.178363
internal_weight=4.63832 0.132598 4.50572 4.50429 0.0274877 4.4768 0.0279433 0.127668 4.44886 0.0193901 4.42947 0.0247954 4.40467 0.0386889 4.36599 0.991373 0.0212509 0.970123 0.0438609 0.926262 0.0782103 0.0704643 0.848051 3.37461 0.283782 0.280926 0.277405 0.0265301 0.250875 3.09083
internal_count=6383 252 6131 6105 49 6056 68 241 5988 40 5948 42 5906 93 5813 1307 56 1251 75 1176 123 109 1053 4506 464 458 451 51 400 4042
is_linear=0
shrinkage=0.05


Tree=8
num_leaves=31
num_cat=0
split_feature=20 5 6 14 2 14 15 14 5 18 21 14 19 6 20 12 28 8 5 27 2 24 27 19 5 5 5 19 10 2
split_gain=45430.7 24373.4 10170.4 949.382 5778.5 886.82 6264.77 111.112 1808.69 6033.79 200.748 52.8303 516.246 304.334 1.28352 0.158051 0.0794425 0.00257924 9.51202e-10 9.19564e-10 3.89918e-10 5.68907e-11 3.89663e-11 2.45395e-11 2.37674e-11 2.25054e-11 2.19099e-11 2.18905e-11 2.10294e-11 2.05043e-11
threshold=-2.1967385916580779 -0.64242248139725033 0.38303197500403668 -1.9740792819172202 0.72097314307900451 1.8900810142304785 0.74016139089913446 1.46653417749915 -0.29151568450019449 0.12606950082771443 -1.571912291239264 -1.6899360014924316 -1.7516361274833481 -1.6501462925876111 2.6877370016478892 1.5959232489947714 227.48044660198383 2.1832349084875529 -0.77331906694851138 1.3155563758669147 1.744239694285284 2.4234934323078976 1.3155563758669147 2.2721239070257262 -0.74842233768233024 -0.75923109947686662 -0.92300632533633598 2.4233226138888067 -2.1379881327132177 -1.240576762646495
decision_type=2 2 2 2 2 2 2 2 2 2 2 2 2 2 2 2 2 2 2 2 2 2 2 2 2 2 2 2 2 2
left_child=1 -1 -3 4 22 7 -7 11 9 26 -10 12 -5 -14 17 16 -12 18 29 20 21 23 25 28 -15 -2 -9 -25 -20 -13
right_child=3 2 -4 5 -6 6 -8 8 10 -11 15 14 13 24 -16 -17 -18 -19 19 -21 -22 -23 -24 27 -26 -27 -28 -29 -30 -31
leaf_value=-228.86020870531098 -0.050032702855187662 -16.368300761376688 -113.22390069727381 -27.895295054420281 -37.983914707000253 -0.050033172995992498 -51.504704834090404 -0.05003333611255039 -10.338759534781872 -57.038334917354113 -0.050030436598032926 -0.050033414833034355 -15.967297906893657 -0.05003231184360566 -0.17954228741232486 -0.16165121386732878 -0.11732422800526299 -0.056904405231839733 -0.050028136383288305 -0.050033429071771329 -0.050033419714415384 -0.050026407968518018 -0.050033283862922655 -0.050029964071920063 -0.050030223274944496 -0.050029881450167638 -0.050029812130529372 -0.050033298705436872 -0.050029919516859249 -0.050032428865251645
leaf_weight=0.0026222609949968509 0.008490100968655781 0.0061281005831838042 0.00485977901819723 0.0017956374213099471 0.011862730261853471 0.045387802362527263 0.0068021034417711226 0.012123657671335037 0.0048596867127344004 0.0061416110668723071 0.053226786074825672 0.057669522729763889 0.0031412428943440309 0.01880393900648844 0.20501673911797258 0.21374191016886934 0.24915130885606018 0.14311444576651666 0.016678643631175105 0.22214051570070825 0.082029584894209306 0.011585890812099708 0.01462262769928202 0.0095767340390011564 0.04942364930597179 0.042196989981042918 0.0069331184627820898 0.010124571804848725 1.9188135716250354 0.61566265857715152
leaf_count=36 14 35 28 4 34 136 34 28 10 39 134 118 6 32 22 10 17 80 61 414 157 29 22 17 94 76 21 26 3552 1097
internal_value=-0.695736 -91.8933 -59.2061 -0.388591 -5.88112 -0.281659 -6.75631 -0.195275 -0.856772 -13.9398 -0.22398 -0.087925 -1.41681 -0.750617 -0.0583942 -0.128742 -0.105479 -0.0503495 -0.0500309 -0.0500304 -0.05003 -0.0500299 -0.050031 -0.0500299 -0.0500308 -0.0500304 -0.0500321 -0.0500317 -0.0500299 -0.0500325
internal_weight=4.05473 0.0136101 0.0109879 4.04112 0.0771724 3.96395 0.0521899 3.91176 0.546178 0.0251984 0.52098 3.36558 0.0731645 0.0713688 3.29241 0.51612 0.302378 3.0874 2.94428 2.27095 2.04881 1.96678 0.0653097 1.95519 0.0682276 0.0506871 0.0190568 0.0197013 1.93549 0.673332
internal_count=6383 99 63 6284 146 6138 170 5968 259 88 171 5709 136 132 5573 161 151 5551 5471 4256 3842 3685 112 3656 126 90 49 43 3613 1215
is_linear=0
shrinkage=0.05


Tree=9
num_leaves=31
num_cat=0
split_feature=20 5 6 14 3 15 14 2 2 11 14 5 15 14 6 19 0 20 8 5 27 2 24 5 10 19 27 5 19 2
split_gain=46314.3 45058.9 16177.3 1054.02 7276.36 16700.1 986.109 4864.28 9104.21 857.357 107.912 1623.76 8081.09 59.7685 797.351 402.077 3.18382 0.96614 0.00221278 8.15902e-10 7.91267e-10 3.33368e-10 4.88709e-11 3.87013e-11 2.84279e-11 2.08054e-11 1.9665e-11 1.96634e-11 1.88647e-11 1.77175e-11
threshold=-2.1033148408552624 -0.73312493629237041 0.38303197500403668 1.8900810142304785 0.33829144261072813 -0.56415938395060838 -1.9740792819172202 0.22610687076445693 0.4462122272002455 0.19888213205516328 1.46653417749915 -0.010955036976373948 0.78273541170602923 -1.6899360014924316 -1.6102082679951446 -1.3407770342078027 0.69887405264166191 2.6877370016478892 2.1832349084875529 -0.77331906694851138 1.3155563758669147 1.744239694285284 2.4234934323078976 -0.75923109947686662 -2.2454451622586435 2.2721239070257262 0.97857416957624188 -0.74842233768233024 2.4233226138888067 -1.240576762646495
decision_type=2 2 2 2 2 2 2 2 2 2 2 2 2 2 2 2 2 2 2 2 2 2 2 2 2 2 2 2 2 2
left_child=1 -1 9 6 -5 -6 7 26 -9 -3 13 12 23 14 -8 -16 -13 18 19 29 21 22 24 -12 -21 -26 -2 -17 -27 -15
right_child=3 2 -4 4 5 -7 10 8 -10 -11 11 16 -14 17 15 27 -18 -19 -20 20 -22 -23 -24 -25 25 28 -28 -29 -30 -31
leaf_value=-321.53734115423504 -0.050028839405597061 -0.050028970280783382 -138.04699554185098 -0.050031586006856324 -0.050031515938877058 -179.41975501676382 -42.214426050651696 -0.050029936032503025 -93.91178508166135 -34.819213934260183 -0.050031702561729965 -0.10366287302859943 -70.32572433116016 -0.050031785586841106 -20.938596286193903 -0.050030725166261086 -0.35241770361911207 -0.15913546728374428 -0.056538146902800658 -0.050025740720073708 -0.05003179663772829 -0.050031790008957272 -0.050025121297172195 -0.050027586914875938 -0.050028457799525229 -0.050028501205148873 -0.050031097482707225 -0.050028712158686039 -0.050031675126774901 -0.050030845753659674
leaf_weight=0.0018663256068975906 0.03714315857751388 0.0046228128259194496 0.0039855948416516185 0.037333427028351698 0.0038739366485508906 0.0019512769084252223 0.0011858345988953597 0.0065607989090729025 0.0042615866206421925 0.0028761099221410718 0.010904843369889129 0.28225259453966445 0.0049803848123701746 0.05485868988925513 0.0023936539881801852 0.016654482132936174 0.23633686003775489 0.2193317864184906 0.13699422807329353 0.0095564350735640735 0.21131331290228472 0.077394219237002404 0.011021116410262155 0.011995130439500444 1.8224831848239436 0.0091099306591785854 0.013022070343140513 0.044668021312955816 0.0096310954424460617 0.58380510922016582
leaf_count=39 69 28 35 101 22 46 8 12 42 22 38 105 29 118 9 30 37 22 80 49 414 156 29 48 3548 17 21 89 26 1094
internal_value=-0.71115 -93.6771 -56.648 -0.389688 -8.15965 -60.1337 -0.301853 -6.60874 -37.0105 -13.3853 -0.199469 -0.848982 -12.6037 -0.0889099 -1.59081 -0.83476 -0.217028 -0.0579207 -0.0503341 -0.0500294 -0.0500289 -0.0500286 -0.0500284 -0.0500295 -0.0500285 -0.0500285 -0.0500294 -0.0500293 -0.0500301 -0.0500309
internal_weight=3.87437 0.0133508 0.0114845 3.86102 0.0431586 0.00582521 3.81786 0.0609876 0.0108224 0.00749892 3.75687 0.54647 0.0278804 3.2104 0.064902 0.0637162 0.518589 3.1455 2.92617 2.78917 2.15051 1.9392 1.8618 0.0229 1.85078 1.84122 0.0501652 0.0613225 0.018741 0.638664
internal_count=6383 124 85 6259 169 68 6090 144 54 50 5946 257 115 5689 136 128 142 5553 5531 5451 4239 3825 3669 86 3640 3591 90 119 43 1212
is_linear=0
shrinkage=0.05


Tree=10
num_leaves=31
num_cat=0
split_feature=20 20 6 4 14 15 4 14 2 2 16 14 12 17 19 4 10 5 14 6 18 19 4 26 24 15 8 14 7 5
split_gain=34047.8 96464.1 178982 11293.7 1537.66 10027.9 14734.7 1070.92 5014.03 8168.44 15035 121.141 2564.74 1563.9 724.805 381.869 89.8962 173.925 60.1045 1133.95 32.56 585.726 2.66532 0.173492 0.0205534 0.0421633 0.0019151 5.69235e-07 6.44451e-07 6.93013e-10
threshold=-2.0340567197721096 -2.1033148408552624 -0.07517447636142624 0.83540154636364872 1.8900810142304785 0.48786215252178339 -0.041672243324405146 -2.0246781708741222 0.11419565221121027 0.22610687076445693 0.42618190395947642 1.4179792767442116 -1.6598935802696513 -1.2982655264374039 -1.5467019021859369 -1.672172859980251 -0.92112151974793244 -0.55052658846391678 -1.6899360014924316 -1.4044593180211991 2.1672741641036661 -1.4529722086232477 -2.4155079633459398 2.5911429858410613 2.4234934323078976 0.85529945930949436 2.1832349084875529 1.3761719789590676 0.80885701305881164 -0.77331906694851138
decision_type=2 2 2 2 2 2 2 2 2 2 2 2 2 2 2 2 2 2 2 2 2 2 2 2 2 2 2 2 2 2
left_child=1 2 3 -1 7 -6 -7 8 -2 -10 -11 18 -13 -14 -15 -16 17 -17 19 -9 22 -22 -20 26 25 -18 27 29 -29 -24
right_child=4 -3 -4 -5 5 6 -8 11 9 10 -12 12 13 14 15 16 24 -19 20 -21 21 -23 23 -25 -26 -27 -28 28 -30 -31
leaf_value=-184.68246731571617 -0.050027944918505034 -0.050028017146217664 -830.89471019759355 -0.050028270164617118 -0.050030025932763546 -0.050030034947010006 -165.0233154555018 -29.996452127888052 -0.050028550640177187 -209.6750449772033 -0.050029345521660676 -65.689101659266939 -27.195300637800848 -18.81491975372856 -19.524025229351782 -13.441464092787683 -0.050026426596183664 -0.050025652879560539 -0.19305315658928726 -0.050027904076799523 -31.017961715498366 -0.050027942980069462 -0.050029422171418494 -0.093801756956016766 -0.1167057293330469 -0.1047409022712496 -0.056249128400593852 -0.050028569165460529 -0.050525663630157772 -0.050027471918655253
leaf_weight=0.0016248498891339152 0.035386789109017859 0.012288427595780556 0.0010832349515120508 0.00168939185095951 0.033700234366071835 0.0030637557217687572 0.0024246349930763236 0.0033392968471162012 0.0045516146929003324 0.0016696480452305833 0.0017539345426484942 0.0015234827576602319 0.0055258238939682727 0.0053291004267066447 0.0025675258838715456 0.003733729679879616 0.04094550447872547 0.0069154572685010685 0.38875204102404026 0.059248478909689761 0.0016145732771805426 0.028118293713813546 0.58848221405588708 0.25023420075968639 0.245259042509133 0.25137931888832554 0.12990985173450109 0.013869342400530171 0.012304480686026409 2.015949184151113
leaf_count=38 67 24 79 8 114 19 24 16 8 30 10 17 26 23 13 17 141 32 44 134 8 64 1170 24 4 31 70 37 6 4114
internal_value=-0.687323 -71.967 -272.934 -90.5685 -0.399867 -10.2571 -72.9311 -0.305612 -8.12161 -43.9361 -102.282 -0.222032 -0.902522 -0.72679 -0.463793 -0.286242 -0.196146 -4.74522 -0.112279 -1.64778 -0.084254 -1.73167 -0.0698453 -0.0539366 -0.106032 -0.0970771 -0.0503229 -0.0500302 -0.0502623 -0.0500279
internal_weight=4.15424 0.0166859 0.00439748 0.00331424 4.13755 0.0391886 0.00548839 4.09836 0.043362 0.0079752 0.00342358 4.055 0.563179 0.561656 0.55613 0.550801 0.548233 0.0106492 3.49182 0.0625878 3.42923 0.0297329 3.3995 3.01075 0.537584 0.292325 2.76052 2.63061 0.0261738 2.60443
internal_count=6412 149 125 46 6263 157 43 6106 115 48 40 5991 304 287 261 238 225 49 5687 150 5537 72 5465 5421 176 172 5397 5327 43 5284
is_linear=0
shrinkage=0.05


Tree=11
num_leaves=31
num_cat=0
split_feature=20 14 8 0 28 14 15 3 14 20 5 15 19 27 7 6 16 24 21 25 14 21 8 14 20 7 8 8 6 5
split_gain=7.21506e+07 4.10944e+08 11921.2 59086.1 5912.36 1735.71 13903.9 12014.2 1178.41 2406 1052.45 105.835 672.368 2061.7 193.015 505.86 203.823 404.847 172.102 579.092 20.4024 135.831 1.87065 0.434605 0.360195 0.0984402 0.020523 0.00148584 9.05562e-07 5.06488e-10
threshold=-2.0340567197721096 1.0856593853428775 -0.044080354672198493 0.36536049427957051 46.526040289213789 1.8900810142304785 0.46583985770763153 -0.63876477416515476 -2.0246781708741222 -0.66416355163388097 -0.75923109947686662 1.027983328583681 -1.5078873320192128 -0.47062514700875863 1.62514624211947 -0.37221762504384265 1.5407753259454722 -0.51143142535639152 -1.4748572655604006 -0.50797052622335059 -1.6899360014924316 -1.1183451946092908 2.2878839353751408 1.1836522463214552 2.6877370016478892 -0.99092363809042883 -0.99042197346175398 2.1832349084875529 -1.967149217120894 -0.77331906694851138
decision_type=2 2 2 2 2 2 2 2 2 2 2 2 2 2 2 2 2 2 2 2 2 2 2 2 2 2 2 2 2 2
left_child=1 2 4 -4 -1 8 -7 -8 9 -2 -11 20 13 -13 16 -16 18 -18 19 -14 21 -10 23 29 27 26 -25 -20 -27 -22
right_child=5 -3 3 -5 -6 6 7 -9 11 10 -12 12 14 -15 15 -17 17 -19 24 -21 22 -23 -24 25 -26 28 -28 -29 -30 -31
leaf_value=-94.837814760439628 -35.236389009660478 24213.146085561588 -388.2281778098274 -0.050026892991870714 -0.05002741535595067 -0.050028548867588618 -0.050028373938486373 -173.47608140742022 -7.9202032035622869 -29.432935256896982 -0.050026450195052169 -35.337564278938153 -19.032740795940864 -0.050026672695588262 -18.253057141310261 -0.050026813374172523 -15.744107080957461 -0.050026344831299308 -0.050026520157113674 -0.050026324087115839 -0.050027977770849379 -0.05002663697592237 -0.2308516863826173 -0.10450195246552108 -0.12857359045954259 -0.050479704825426977 -0.087291929512220659 -0.056827761905404034 -0.050026001321775107 -0.050026103685999829
leaf_weight=0.002637470548506827 0.007105025499186012 0.0020608596969395885 0.001545682045400175 0.0026800899067893629 0.0043723651324398816 0.030904346173208697 0.0017611829781571942 0.0023064585402607909 0.0063530975375616213 0.0034033392439596346 0.029151673673163514 0.0056677231832600308 0.0052679505400980977 0.015348789070939728 0.0054935904795456727 0.012503215271864043 0.0063718291930854312 0.011572139288256289 0.31584875249291544 0.016927616905030862 0.46481735580679906 0.040001935721604057 0.17488713798237432 0.49865319760740368 0.2385497645882424 0.012228795312240304 0.26544004494541029 0.10768153056971741 0.10927344344203616 1.6067319653043988
leaf_count=26 24 25 48 19 31 112 11 34 20 10 81 16 14 35 17 27 15 27 706 47 975 106 50 9 5 10 63 11 385 3453
internal_value=11.843 3688.9 -75.7024 -142.036 -35.7142 -0.397565 -11.4878 -98.3871 -0.299606 -8.87503 -3.12175 -0.212837 -0.750845 -9.56635 -0.493601 -5.60657 -0.362564 -5.62293 -0.22462 -4.55543 -0.087368 -1.12866 -0.0719566 -0.0625594 -0.0794335 -0.0918758 -0.0985233 -0.0517557 -0.0500717 -0.0500265
internal_weight=4.00755 0.0132965 0.0112356 0.00422577 0.00700984 3.99425 0.034972 0.00406764 3.95928 0.03966 0.032555 3.91962 0.741233 0.0210165 0.720216 0.0179968 0.70222 0.017944 0.684276 0.0221956 3.17839 0.046355 3.13203 2.95714 0.66208 0.885595 0.764093 0.42353 0.121502 2.07155
internal_count=6412 149 124 67 57 6263 157 45 6106 115 91 5991 920 51 869 44 825 42 783 61 5071 126 4945 4895 722 467 72 717 395 4428
is_linear=0
shrinkage=0.05


Tree=12
num_leaves=31
num_cat=0
split_feature=20 14 28 14 14 3 15 14 20 9 4 15 14 15 14 24 4 12 26 24 8 14 5 5 27 20 24 7 0 15
split_gain=58045 236072 8257.13 11761.9 1965.99 14397.3 41883.4 1711.63 4725.3 5556.85 1192.94 156.375 101.868 134.808 82.4392 449.895 1.49593 0.339033 0.117559 0.0350627 0.00141513 3.12608e-07 6.72958e-07 5.10585e-10 4.90764e-10 6.73299e-11 3.44247e-11 2.83014e-11 2.11005e-11 1.5323e-11
threshold=-1.9502217294377859 0.95420061505079845 43.360857315317233 -0.64056175946701799 1.8900810142304785 0.24449291472886853 -0.73844870985678057 -2.0246781708741222 -0.39334298552378272 0.47819448745530563 -0.30768692586966739 0.7685122988292985 1.46653417749915 0.85529945930949436 -1.6899360014924316 1.0315835777145697 -2.4155079633459398 -2.1142616498387654 2.5911429858410613 2.4234934323078976 2.1832349084875529 1.3761719789590676 1.7830776199738028 -0.77331906694851138 1.3155563758669147 2.3946023503304663 2.4234934323078976 2.4446856547206042 0.71024092522251148 -0.60056881496329828
decision_type=2 2 2 2 2 2 2 2 2 2 2 2 2 2 2 2 2 2 2 2 2 2 2 2 2 2 2 2 2 2
left_child=1 2 3 -1 7 -6 -7 8 9 -2 -4 -10 14 19 15 -9 17 -16 20 28 21 23 -23 -18 25 26 27 -25 -14 -30
right_child=4 -3 10 -5 5 6 -8 12 11 -11 -12 -13 13 -15 16 -17 18 -19 -20 -21 -22 22 -24 24 -26 -27 -28 -29 29 -31
leaf_value=-0.050024531344008485 -100.08334171443744 -605.63705480127317 -37.894696979993334 -198.72721867035801 -0.050027151701903007 -0.050027004417260983 -364.67715067282188 -0.050025263347737194 -0.050025361038916027 -0.050024537696912313 -0.050025947696980079 -10.126431228687672 -0.050023968642574981 -1.6862238286555902 -0.20425290825046394 -13.423184580059605 -0.050026617852472172 -0.11553071375056785 -0.086571984353692732 -0.10356525110529183 -0.055634733519083213 -0.050025305168841773 -0.050518602581256046 -0.050024610378623963 -0.050027339597786526 -0.050020640943595721 -0.05002174304964703 -0.050027018397271542 -0.050023580446159947 -0.050019010195907279
leaf_weight=0.0014702976332046092 0.0029990008333697898 0.0019815483829006544 0.0026423799481563046 0.0015099870944025326 0.027184327010752365 0.002791916821396536 0.0010970110958031963 0.039563613432480049 0.017184671771269731 0.0025848679069895306 0.00982473262085648 0.0049620864879218142 0.027358731163801324 0.25128319785948044 0.18487018346786499 0.0074776644760277114 0.53133920802827006 0.25786827653898869 0.24519530518910704 0.24970372021198273 0.11809721804601414 0.021607786571279486 0.010166648540753442 1.605332579683971 0.17927927905089402 0.0107542299061264 0.010401955434133359 0.012295145386150952 0.0032142893946320358 0.004270971852964712
leaf_count=12 28 33 23 41 89 19 49 128 55 13 65 19 151 56 1 21 1182 43 23 3 73 88 4 3659 400 31 29 29 14 31
internal_value=-0.811677 -91.8513 -25.9444 -100.712 -0.397268 -12.9228 -102.906 -0.294785 -12.6714 -53.7762 -8.07113 -2.30769 -0.203749 -0.842287 -0.0979599 -2.17582 -0.0672919 -0.152578 -0.0535336 -0.0970088 -0.0502923 -0.0500274 -0.0501831 -0.0500253 -0.0500249 -0.0500246 -0.0500246 -0.0500246 -0.0500233 -0.050021
internal_weight=3.84631 0.0174289 0.0154474 0.00298028 3.82888 0.0310733 0.00388893 3.79781 0.0277306 0.00558387 0.0124671 0.0221468 3.77008 0.535831 3.23425 0.0470413 3.18721 0.442738 2.74447 0.284548 2.49927 2.38118 0.0317744 2.3494 1.81806 1.63878 1.62803 1.61763 0.034844 0.00748526
internal_count=6412 174 141 53 6238 157 68 6081 115 41 88 74 5966 255 5711 149 5562 44 5518 199 5495 5422 92 5330 4148 3748 3717 3688 196 45
is_linear=0
shrinkage=0.05


Tree=13
num_leaves=31
num_cat=0
split_feature=20 14 20 4 14 20 9 14 3 15 5 14 28 15 3 14 24 4 12 26 24 8 14 19 5 27 20 24 7 19
split_gain=37986.7 202239 7423.25 15607.3 2516.65 6793.87 9252.09 2175.82 14927.2 43354.1 290.596 135.178 2623.11 18368.4 42396.6 105.17 719.809 1.13303 0.204852 0.0970032 0.0573056 0.00121406 2.68968e-07 5.79084e-07 4.37428e-10 4.20653e-10 5.7865e-11 2.96607e-11 2.43439e-11 1.98008e-11
threshold=-1.8959905654923552 1.0499795119197866 -2.0340567197721096 0.85973228862664619 -2.0246781708741222 -0.3410644899457414 1.3260842453034103 1.8900810142304785 0.14715729642535372 -0.5854549307661906 -0.40021482850255019 1.46653417749915 96.528209993054261 0.30277378007541816 0.30138888052007756 -1.6899360014924316 0.68930594884272034 -2.4155079633459398 -2.1142616498387654 2.5911429858410613 2.4234934323078976 2.1832349084875529 1.3761719789590676 -1.7516361274833481 -0.77331906694851138 1.3155563758669147 2.3946023503304663 2.4234934323078976 2.4446856547206042 2.4233226138888067
decision_type=2 2 2 2 2 2 2 2 2 2 2 2 2 2 2 2 2 2 2 2 2 2 2 2 2 2 2 2 2 2
left_child=1 2 3 -1 5 6 -2 11 -9 -10 -7 15 13 -13 -15 16 -6 18 -17 21 -14 22 24 -24 -19 26 27 28 29 -26
right_child=4 -3 -4 -5 7 10 -8 8 9 -11 -12 12 20 14 -16 17 -18 19 -20 -21 -22 -23 23 -25 25 -27 -28 -29 -30 -31
leaf_value=-206.35131818470123 -154.92178685191487 -498.36168377619288 -0.050024241476897296 -0.050024896411386389 -0.0500239820131003 -17.924650238432509 -0.050024089858214098 -0.050025840794266113 -0.050025557031516232 -378.33586770571316 -0.050024397703075353 -0.050022642096898967 -0.057629370309930074 -0.050017481059560158 -397.2762500029109 -0.17575563737604832 -20.73847433020595 -0.050025319512758459 -0.10878605872401537 -0.083548941392003057 -0.098295354745390348 -0.055338768887074542 -0.050493209398139831 -0.05002406620083031 -0.0500233951150649 -0.050026003445194506 -0.050019635550443246 -0.050020679766886636 -0.05002569850685399 -0.050025822228318355
leaf_weight=0.0014541838027071199 0.0019370864756638173 0.00240813149139285 0.016927177150343531 0.0024807285517454147 0.032296598072496963 0.002797261182644911 0.0019203929405193778 0.024787935225435237 0.0026696850143295993 0.0010574014559097101 0.012151277350484142 0.019903971511280601 0.13259136057837989 0.0020176439277248617 0.0010069828461803784 0.20355367660522461 0.0048336148695907735 0.50236929667604835 0.26009786201907559 0.2414571166664311 0.24992480874061584 0.1129231547878139 0.0096724843606459804 0.020557557739506141 1.5101948168724584 0.17001838231040722 0.010229940553358685 0.0098948509895250281 0.011695804644359709 0.0084502553435873429
leaf_count=103 38 34 45 21 113 18 6 84 25 47 53 97 87 41 29 1 35 1174 43 23 1 73 4 88 3612 399 31 29 29 29
internal_value=-0.834742 -64.5101 -14.4302 -76.2906 -0.418641 -18.6611 -77.821 -0.32179 -14.0777 -107.372 -3.39483 -0.210155 -1.06884 -17.4955 -132.298 -0.0981465 -2.74325 -0.0661669 -0.138187 -0.0533604 -0.0841993 -0.0502796 -0.050026 -0.0501742 -0.050024 -0.0500236 -0.0500234 -0.0500234 -0.0500234 -0.0500234
internal_weight=3.58428 0.0232702 0.0208621 0.00393491 3.56101 0.018806 0.00385748 3.54221 0.028515 0.00372709 0.0149485 3.51369 0.405445 0.0229286 0.00302463 3.10825 0.0371302 3.07112 0.463652 2.60746 0.382516 2.36601 2.25308 0.03023 2.22285 1.72048 1.55047 1.54024 1.53034 1.51865
internal_count=6412 203 169 124 6209 115 44 6094 156 72 71 5938 255 167 70 5683 148 5535 44 5491 88 5468 5395 92 5303 4129 3730 3699 3670 3641
is_linear=0
shrinkage=0.05


Tree=14
num_leaves=31
num_cat=0
split_feature=20 20 2 22 19 7 18 15 3 15 9 15 19 26 3 23 8 20 17 17 13 7 8 6 22 5 27 4 5 27
split_gain=44872.1 310833 812.99 2417.88 903.908 425.006 464.888 352.381 1898.9 2927.87 189.124 115.076 1185.98 444.251 2408.73 98.5539 0.728086 0.115477 0.11396 0.0836407 0.0135711 0.00263178 0.000611006 1.51568e-07 5.09831e-07 3.1248e-10 2.83861e-10 6.37899e-11 5.16119e-11 4.83795e-11
threshold=-1.8959905654923552 -2.0340567197721096 1.744239694285284 1.147644956691656 -2.0481808350007165 -1.6181094331496542 -1.7145218922512375 1.4018271488839777 0.81550105986599231 1.596768293993825 -1.0512454004792002 1.049729360279744 -1.5467019021859369 0.23029474129118363 0.79099885540809411 1.2642794081144961 2.2878839353751408 2.6877370016478892 -0.96192716825666891 -1.035014736366024 1.5735930581417992 -2.6351421474373198 2.1832349084875529 -2.0295055163075544 1.366103720039672 -0.77331906694851138 1.3155563758669147 -2.4155079633459398 -0.77331906694851138 1.345143738510348
decision_type=2 2 2 2 2 2 2 2 2 2 2 2 2 2 2 2 2 2 2 2 2 2 2 2 2 2 2 2 2 2
left_child=1 -1 7 4 -4 -6 -7 11 -9 -10 -11 16 -13 17 -15 -8 18 22 19 28 -21 -20 -14 24 -23 -25 27 -27 -2 -30
right_child=2 -3 3 -5 5 6 15 8 9 10 -12 12 13 14 -16 -17 -18 -19 21 20 -22 23 -24 25 -26 26 -28 -29 29 -31
leaf_value=-614.50942631079192 -0.050024080946991713 -0.050023058687261736 -49.564809610198431 -31.462316685028174 -24.409574479318071 -25.234500600627157 -0.050024631577150425 -0.050022686022125923 -37.091730104862116 -12.250060797130073 -0.050024255501426029 -21.1949673607173 -0.050022725292437231 -0.050022787329681045 -29.160015173677596 -5.6475604955691638 -0.15123970344396631 -0.10547844463143152 -0.057766829305690007 -0.077405628457436537 -0.093618633817831864 -0.050022804692932944 -0.055833442730987497 -0.050024045067733183 -0.050427883998933068 -0.050016868985028544 -0.050024639072776322 -0.05002211963836746 -0.050022091666161742 -0.050024751455310684
leaf_weight=0.0023597978870426575 0.055284816068816245 0.016102000005482453 0.0010097993927047346 0.007958667926118046 0.0020525830397112301 0.0019853500416510258 0.065712319201605501 0.12693781548288349 0.0094488086738492016 0.0040983479006558047 0.014124417605621022 0.0070938941498751565 0.087589885317643668 0.041185861835908152 0.0085881162538680861 0.0089325020390476212 0.22731673310536793 0.24932558834552765 0.11791241024911037 0.26707628961667296 0.2497849751484118 0.03322134408862254 0.093568831002755815 0.35189182574662892 0.010137979646970052 0.0058159297329439799 0.12169065399803769 1.0697106517360708 0.1759724464752673 0.018936212551767112
leaf_count=149 162 54 4 28 10 6 173 376 32 13 40 28 248 120 31 30 54 1 19 84 4 84 5 910 4 25 330 2853 491 44
internal_value=-0.848354 -78.5906 -0.430442 -5.18401 -2.55967 -1.95641 -1.35499 -0.305945 -2.63719 -14.5053 -2.79384 -0.193031 -0.900271 -0.600498 -5.07273 -0.719863 -0.0655985 -0.0834043 -0.0577405 -0.0737537 -0.0852409 -0.050559 -0.053024 -0.0500253 -0.0501175 -0.0500227 -0.0500224 -0.0500221 -0.0500227 -0.0500224
internal_weight=3.45283 0.0184618 3.43437 0.0876512 0.0796926 0.0786828 0.0766302 3.34671 0.154609 0.0276716 0.0182228 3.1921 0.487352 0.480258 0.049774 0.0746448 2.70475 0.430484 2.47744 0.767055 0.516861 1.71038 0.181159 1.59247 0.0433593 1.54911 1.19722 1.07553 0.250193 0.194909
internal_count=6412 203 6209 251 223 219 209 5958 461 85 53 5497 433 405 151 203 5064 254 5010 785 88 4225 253 4206 88 4118 3208 2878 697 535
is_linear=0
shrinkage=0.05


Tree=15
num_leaves=31
num_cat=0
split_feature=20 14 14 2 14 3 15 25 14 15 14 27 4 12 24 8 14 5 5 27 2 20 24 0 0 2 27 10 0 20
split_gain=169776 480500 3768.1 17327.3 2451.33 16535 24566.4 539.057 215.404 624.688 137.919 1724.72 0.725822 0.0888413 0.0166847 0.0008963 1.9074e-07 4.36696e-07 3.20717e-10 3.04797e-10 9.78946e-11 4.08715e-11 2.00657e-11 1.54477e-11 1.82731e-11 6.7234e-12 5.88544e-12 5.25469e-12 5.17841e-12 5.43976e-12
threshold=-1.9502217294377859 0.38889436946548522 -2.0246781708741222 0.11419565221121027 1.8900810142304785 0.11714581556713877 -0.89991976345684399 -0.4557365681532744 1.46653417749915 0.85529945930949436 -1.6899360014924316 -1.2237181198897278 -2.4155079633459398 -2.1142616498387654 2.4234934323078976 2.1832349084875529 1.3761719789590676 1.7830776199738028 -0.77331906694851138 1.3155563758669147 1.744239694285284 2.3946023503304663 2.4234934323078976 0.71024092522251148 1.3286436198964375 -1.240576762646495 1.3155563758669147 -2.1379881327132177 -1.4973521568921964 2.0222452970149027
decision_type=2 2 2 2 2 2 2 2 2 2 2 2 2 2 2 2 2 2 2 2 2 2 2 2 2 2 2 2 2 2
left_child=1 7 3 -2 8 -6 -7 -1 10 14 11 -4 13 -12 23 16 18 -18 25 20 21 22 27 -10 -25 -14 -13 -20 -27 -30
right_child=2 -3 4 -5 5 6 -8 -9 9 -11 12 26 15 -15 -16 -17 17 -19 19 -21 -22 -23 -24 24 -26 28 -28 -29 29 -31
leaf_value=-39.557649254151926 -0.050021551685413446 -1122.2503190229299 -46.680551137253779 -151.53594373288757 -0.050023386273826347 -0.050023629809396189 -272.81426470734209 -0.050022458500848702 -0.050020796606496491 -4.5075793486618876 -0.14068075900641983 -0.050021261525164777 -0.050023501310152568 -0.097980752224325965 -0.089861917720553797 -0.054819235949776918 -0.050021790003784698 -0.050445727915843966 -0.050019922957447088 -0.050023490502705985 -0.050023490123128816 -0.050017424718352049 -0.050018584487537911 -0.050015338513324362 -0.050021049858454208 -0.05002353657842782 -0.050023522385849332 -0.050021081279337611 -0.05002280229396714 -0.050021464294940525
leaf_weight=0.0012655783794076831 0.010315994766239789 0.0012921043658593589 0.0021445177812653175 0.0023104457410951804 0.021833251948402292 0.0018885619337562567 0.0014664678819826795 0.0027169709044054576 0.023742604950891429 0.11235434400484345 0.22909507155418396 0.023034595630950731 0.039751494256616338 0.26013220769139955 0.24681799113750458 0.10250599268220151 0.019799493815652075 0.0087631196797686994 0.0098663518709850573 0.1495830911248438 0.041909230370855144 0.0077921898341627429 0.00815571798752035 0.0031337090651473564 0.0025320875393080667 0.023712395939785136 0.0032896241764123956 1.2793296635003468 0.37168999706727279 0.0077548527322433549
leaf_count=23 70 61 13 48 88 16 65 92 159 52 1 128 119 42 2 82 92 4 55 407 152 26 27 25 21 72 13 3440 960 25
internal_value=-1.00844 -284.429 -0.512554 -27.7696 -0.397914 -15.9304 -119.274 -12.6048 -0.266489 -1.36419 -0.101693 -3.56265 -0.0632025 -0.117976 -0.0856202 -0.050261 -0.0500236 -0.0501519 -0.0500217 -0.0500213 -0.0500211 -0.050021 -0.0500211 -0.0500202 -0.0500179 -0.0500229 -0.0500215 -0.0500211 -0.0500228 -0.0500228
internal_weight=3.01998 0.00527465 3.01471 0.0126264 3.00208 0.0251883 0.00335503 0.00398255 2.97689 0.388581 2.58831 0.0284687 2.55984 0.489227 0.276226 2.07061 1.96811 0.0285626 1.93954 1.49664 1.34705 1.30514 1.29735 0.0294084 0.0056658 0.442909 0.0263242 1.2892 0.403157 0.379445
internal_count=6380 176 6204 118 6086 169 81 115 5917 259 5658 154 5504 43 207 5461 5379 96 5283 4107 3700 3548 3522 205 46 1176 141 3495 1057 985
is_linear=0
shrinkage=0.05


Tree=16
num_leaves=31
num_cat=0
split_feature=20 20 15 2 22 24 15 3 16 1 10 24 15 19 12 22 8 21 10 20 4 24 20 8 6 5 7 17 5 20
split_gain=37994.9 264516 219926 1238.81 3969.37 8858.93 562.788 6880.65 9815.8 713.342 528.292 1098.59 155.57 7170.07 1709.17 813.734 774.708 282.503 61.7291 175.254 0.446717 0.107977 0.0731003 0.000457508 1.08636e-07 3.62371e-07 3.77336e-10 5.95399e-10 2.5339e-10 3.25528e-11
threshold=-1.8438241526705677 -1.9502217294377859 -0.60056881496329828 1.744239694285284 0.77308330777656153 0.058552249901893859 1.4018271488839777 0.81550105986599231 0.27002639992905636 -0.12833972440245547 -0.3983080845358194 1.0000000180025095e-35 1.049729360279744 -1.4747144547620892 -1.6598935802696513 -2.0975555793194709 -1.8171697481050006 -1.9126199879396126 -0.92112151974793244 0.68373902254896535 -2.4155079633459398 2.4234934323078976 2.6877370016478892 2.0089156513853879 -2.0295055163075544 1.7830776199738028 -2.3773354241612599 0.73685496209706836 -0.77331906694851138 2.3946023503304663
decision_type=2 2 2 2 2 2 2 2 2 2 2 2 2 2 2 2 2 2 2 2 2 2 2 2 2 2 2 2 2 2
left_child=1 2 -1 6 10 -6 12 -8 9 -9 11 -5 20 -14 -15 -16 -17 -18 19 -19 -2 24 23 -20 25 -22 27 -26 -28 -30
right_child=3 -3 -4 4 5 -7 7 8 -10 -11 -12 -13 13 14 15 16 17 18 22 -21 21 -23 -24 -25 26 -27 28 -29 29 -31
leaf_value=-77.87633671162348 -0.12640239984667737 -0.050020565653967314 -1000.3536315861295 -24.127101015653352 -0.050022454310231071 -139.20912946494701 -0.050020510428768407 -30.64095866297404 -120.34837978982733 -0.050024499781707671 -0.050022314841525577 -0.05002215139577363 -121.29123152029712 -43.957734727380007 -41.582345333482266 -39.407019409715026 -14.570280278022631 -0.050020539103225771 -0.050020616708779789 -12.068193107416239 -0.050020749997275529 -0.085075320790750836 -0.095233405941277521 -0.055222353564407661 -0.050020160605073027 -0.050372971898584688 -0.050021728779380673 -0.050044690890339749 -0.050020255010294071 -0.050017033734843189
leaf_weight=0.0012849124323111019 0.24490773294597445 0.017606706969505094 0.0012996054263531773 0.0083066554742437099 0.0031471584586084018 0.0017965047736652707 0.1127992217976746 0.0032689418786395761 0.0029094328585707362 0.0045696539248895286 0.034126814403128605 0.011026842177365256 0.0012372030841514272 0.0022775040670241489 0.0012038815475535194 0.0012704220924621415 0.0034434643748682539 0.011198417723309782 0.083479009186204448 0.0041603663994465934 0.031126180522632718 0.2533085515072292 0.24955694549134932 0.085632219920267358 0.0060373177937126854 0.0095405564643442631 0.3681236436785037 0.0041907641342448588 1.2289091611191163 0.0078932216772295005
leaf_count=48 40 53 128 35 31 19 368 25 38 21 126 37 35 13 4 8 13 45 284 13 90 37 2 9 36 4 1078 14 3696 30
internal_value=-1.04633 -69.3871 -541.737 -0.549875 -7.75498 -50.6198 -0.395226 -3.69235 -41.9182 -12.8074 -3.79112 -10.3948 -0.238401 -1.09122 -0.754935 -0.531282 -0.418641 -0.305418 -0.192244 -3.30549 -0.0628289 -0.0546736 -0.0780347 -0.0526546 -0.0500227 -0.0501034 -0.0500206 -0.0500302 -0.0500206 -0.0500202
internal_weight=2.79964 0.0201912 0.00258452 2.77945 0.058404 0.00494366 2.72104 0.123547 0.010748 0.0078386 0.0534603 0.0193335 2.5975 0.443459 0.442222 0.439945 0.438741 0.43747 0.434027 0.0153588 2.15404 1.90913 0.418668 0.169111 1.65582 0.0406667 1.61515 0.0102281 1.60493 1.2368
internal_count=6380 229 176 6151 248 50 5903 452 84 46 198 72 5451 426 391 378 374 366 353 58 5025 4985 295 293 4948 94 4854 50 4804 3726
is_linear=0
shrinkage=0.05


Tree=17
num_leaves=31
num_cat=0
split_feature=20 14 14 2 14 3 3 14 14 2 4 8 8 14 19 8 5 27 2 20 24 19 7 14 2 5 10 20 5 27
split_gain=42694.4 456149 5121.97 26841.2 3412.65 31622.4 52894.9 214.224 171.09 1273.69 0.458511 0.043375 0.000658047 1.41233e-07 3.23317e-07 9.72305e-10 2.31838e-10 2.27204e-10 6.20184e-11 2.66258e-11 2.15459e-11 1.16913e-11 9.27836e-12 5.37211e-12 5.06351e-12 4.61485e-12 3.73634e-12 3.7248e-12 3.33332e-12 2.85475e-12
threshold=-1.8438241526705677 0.95420061505079845 -2.0246781708741222 0.0090643617555956017 1.8127195174806547 0.33829144261072813 0.66742786332992077 1.46653417749915 -1.6899360014924316 0.64016904355685111 -2.4155079633459398 2.2878839353751408 2.1832349084875529 1.3761719789590676 -1.5819613073035561 -0.83852774923754592 -0.77331906694851138 1.3155563758669147 1.744239694285284 2.3946023503304663 2.4234934323078976 2.4233226138888067 2.4446856547206042 1.9555840662633102 -1.240576762646495 -0.78665784920507431 -2.1379881327132177 2.0222452970149027 -0.5632429504712495 1.2500651006762447
decision_type=2 2 2 2 2 2 2 2 2 2 2 2 2 2 2 2 2 2 2 2 2 2 2 2 2 2 2 2 2 2
left_child=1 25 3 -2 7 15 -7 8 9 28 11 -10 13 16 -15 -6 24 18 19 20 21 22 26 -17 -12 -1 -18 -26 -4 -16
right_child=2 -3 4 -5 5 6 -8 -9 10 -11 12 -13 -14 14 29 23 17 -19 -20 -21 -22 -23 -24 -25 27 -27 -28 -29 -30 -31
leaf_value=-0.050020827209671249 -0.050019578829503614 -925.37487612705593 -0.050020507827194152 -229.26762149028011 -0.050051757919473742 -0.050021380899304746 -440.29187169354145 -1.6145515401291197 -0.089922756370765522 -36.235269976586082 -0.050021270241351938 -0.1194236379801777 -0.054326064161575795 -0.050403105909337199 -0.050019364823833505 -0.050019361065349169 -0.05001800212400026 -0.050021265546935791 -0.05002131783999908 -0.050015916394183714 -0.050016315227043043 -0.050021190046532382 -0.050020814427909434 -0.050021160571305359 -0.050020664237628853 -0.050019011275064917 -0.050019050930371067 -0.050019533876755409 -0.050019050447217939 -0.050020858119931316
leaf_weight=0.0054199281671571944 0.0078077401577478457 0.0014589470811188212 0.0053207044177982299 0.0015269333434841147 0.0028410035270867292 0.0017089273605977516 0.0011357393570704632 0.26080197183185605 0.25528034783262876 0.0027635569608463533 0.035078864315378266 0.2433937634132235 0.093560373048487411 0.0079336846247402976 0.013746763541061533 0.0054687735173804082 0.0085563350561660423 0.13342830734361699 0.030427563365217236 0.0068211963248357979 0.0071599956920068699 0.0064457666528964222 0.0074406882436891522 0.017165254015299683 0.34689950176233558 0.0098694702443798982 1.1219316320718804 0.0074443826202968957 0.014940787765700859 0.0041717518021808829
leaf_count=51 61 44 38 57 12 29 61 208 40 37 117 2 81 5 71 40 54 405 152 26 27 25 28 76 1017 134 3358 26 78 20
internal_value=-1.07535 -80.655 -0.57262 -37.5446 -0.441984 -17.7056 -175.818 -0.25492 -0.104205 -4.39312 -0.0618172 -0.104322 -0.0502413 -0.0500214 -0.0501374 -0.0500242 -0.0500196 -0.0500193 -0.0500191 -0.050019 -0.050019 -0.0500191 -0.0500191 -0.0500207 -0.0500207 -0.0500197 -0.050019 -0.0500206 -0.0500194 -0.0500197
internal_weight=2.66795 0.0167483 2.6512 0.00933467 2.64187 0.0283197 0.00284467 2.61355 2.35275 0.023025 2.32972 0.498674 1.83105 1.73749 0.0258522 0.025475 1.71163 1.32221 1.18878 1.15836 1.15153 1.14437 1.13793 0.022634 0.389423 0.0152894 1.13049 0.354344 0.0202615 0.0179185
internal_count=6380 229 6151 118 6033 218 90 5815 5607 153 5454 42 5412 5331 96 128 5235 4075 3670 3518 3492 3465 3440 116 1160 185 3412 1043 116 91
is_linear=0
shrinkage=0.05


Tree=18
num_leaves=31
num_cat=0
split_feature=20 14 14 2 14 3 3 14 14 2 0 20 8 14 8 14 19 28 5 27 2 20 24 5 19 7 5 5 10 2
split_gain=32091.3 361729 6457.62 26161.5 3737.71 31816.2 46336.8 551.628 204.882 1329.71 2134.65 0.324871 0.0522387 0.0260322 0.000568156 1.21496e-07 2.78113e-07 4.86018e-10 1.96516e-10 1.89475e-10 5.08602e-11 2.56525e-11 1.81168e-11 1.4799e-11 1.03604e-11 8.26916e-12 6.02059e-12 4.54426e-12 4.36673e-12 3.99736e-12
threshold=-1.8003422845575583 0.88038299266199138 -2.0246781708741222 -0.13658790034035381 1.8127195174806547 0.10671429288420071 0.38397771107174605 1.46653417749915 -1.6899360014924316 0.41393607081123823 0.89913451788621257 1.8863622089233192 2.2878839353751408 1.325846788341096 2.1832349084875529 1.3761719789590676 -1.5819613073035561 223.33563593876173 -0.77331906694851138 1.3155563758669147 1.744239694285284 2.3946023503304663 2.4234934323078976 -0.20028233757438907 2.4233226138888067 2.4446856547206042 -0.74842233768233024 -0.78665784920507431 -2.1379881327132177 -1.240576762646495
decision_type=2 2 2 2 2 2 2 2 2 2 2 2 2 2 2 2 2 2 2 2 2 2 2 2 2 2 2 2 2 2
left_child=1 27 3 -2 7 17 -7 8 9 -4 -11 14 13 21 15 18 -17 -6 29 20 22 26 24 -23 25 28 -13 -1 -20 -10
right_child=2 -3 4 -5 5 6 -8 -9 11 10 -12 12 -14 -15 -16 16 -18 -19 19 -21 -22 23 -24 -25 -26 -27 -28 -29 -30 -31
leaf_value=-0.050019810664446912 -0.050018589201256985 -731.03809354891678 -0.050018464528869301 -234.04232987013026 -0.050019769549216248 -0.050019820318176977 -410.15097406674789 -3.7664217991219626 -0.050020226214605445 -91.847447613868397 -0.050018949112891953 -0.050019716605990298 -0.11153815135922476 -0.087614106185395738 -0.054131210228654039 -0.050383291046635539 -0.050018751909415973 -0.050038637110632056 -0.050016919862293757 -0.05002021385879999 -0.050020218260237885 -0.050017516259900308 -0.050015519127456692 -0.050013803674651337 -0.05002015551953877 -0.05001979743918792 -0.050018283836192258 -0.050018242504825353 -0.050018091668849123 -0.050019638350074329
leaf_weight=0.0071347397406498177 0.0059313148987151414 0.0018468153531330236 0.01667162637674291 0.001495775644655176 0.018890442756612023 0.0015832112112548202 0.0012192119902480853 0.10781623545144281 0.031743118177966489 0.001089355122530832 0.0015127021217722358 0.0091652069697055749 0.24758677702629939 0.24500373005867004 0.088725357160286289 0.0075496477075004389 0.017043763055165639 0.0041659055182681161 0.0080119664430803317 0.12326915043363884 0.028822760444021323 0.0060503865533974022 0.0068109043123668602 0.0048246943564879685 0.006131523911147573 0.0070779417338150399 0.036658242617961634 0.01310606826918448 1.0345467001683739 0.3248573693240937
leaf_count=56 51 55 104 66 102 19 85 208 114 30 19 28 2 1 80 5 90 12 54 391 151 22 27 24 25 28 115 142 3267 1007
internal_value=-1.17796 -61.1702 -0.624518 -47.1748 -0.479668 -19.3858 -178.467 -0.272596 -0.105412 -5.23844 -38.4811 -0.0611249 -0.0945169 -0.0805487 -0.0502369 -0.0500204 -0.0501307 -0.0500232 -0.0500187 -0.0500184 -0.0500181 -0.0500181 -0.0500181 -0.0500159 -0.0500181 -0.0500181 -0.0500186 -0.0500188 -0.0500181 -0.0500197
internal_weight=2.41634 0.0220876 2.39426 0.00742709 2.38683 0.0258588 0.00280242 2.36097 2.25315 0.0192737 0.00260206 2.23388 0.549289 0.301702 1.68459 1.59586 0.0245934 0.0230563 1.57127 1.21467 1.0914 0.0566985 1.06258 0.0108751 1.05577 1.04964 0.0458234 0.0202408 1.04256 0.3566
internal_count=6380 253 6127 117 6010 218 104 5792 5584 153 49 5431 192 190 5239 5159 95 114 5064 3943 3552 189 3401 46 3374 3349 143 198 3321 1121
is_linear=0
shrinkage=0.05


Tree=19
num_leaves=31
num_cat=0
split_feature=20 14 14 3 14 2 14 11 20 8 14 8 14 19 24 8 27 2 20 24 11 10 14 8 19 7 7 3 24 24
split_gain=118224 539912 11882.6 197313 5268.61 40073.8 91.0072 377.591 0.264262 0.0391064 0.0209199 0.000487934 1.04564e-07 2.39244e-07 1.87479e-08 8.52398e-10 1.26251e-10 4.02556e-11 2.20887e-11 2.1362e-11 1.45603e-11 1.03308e-11 9.28925e-12 8.16261e-12 6.65112e-12 4.42113e-12 3.37219e-12 1.41511e-11 1.01112e-11 2.69972e-12
threshold=-1.8959905654923552 0.77751966645455073 1.46653417749915 0.10671429288420071 -1.9048127316648302 0.27932265026555142 -1.6899360014924316 0.60802526483102515 1.8863622089233192 2.2878839353751408 1.325846788341096 2.1832349084875529 1.3761719789590676 -1.5819613073035561 2.4234934323078976 -0.88168809160645234 1.3155563758669147 1.744239694285284 2.3946023503304663 2.4234934323078976 0.18862978061703031 -2.2454451622586435 1.8900810142304785 0.08382375569060567 2.4233226138888067 2.4446856547206042 1.7966499361403263 0.60446278008660692 -1.1587580467985574 -0.39722304203520725
decision_type=2 2 2 2 2 2 2 2 2 2 2 2 2 2 2 2 2 2 2 2 2 2 2 2 2 2 2 2 2 2
left_child=1 -1 4 14 5 -2 7 -6 11 10 18 12 16 -14 15 -4 17 19 -10 21 -20 23 29 -8 25 26 -23 -28 -29 -17
right_child=2 -3 3 -5 6 -7 8 -9 9 -11 -12 -13 13 -15 -16 22 -18 -19 20 -21 -22 24 -24 -25 -26 -27 27 28 -30 -31
leaf_value=-0.050017904259003855 -0.050017478987025722 -1220.6662482479608 -0.050051605643880941 -581.98252823591099 -0.050017749457639593 -283.6897369877039 -0.050012473661507274 -23.523565510441941 -0.050017664848873149 -0.10505059358445397 -0.084458823015540502 -0.053917136017522488 -0.050364459006448592 -0.050017837709871872 -0.050154047112371439 -0.050017508237608789 -0.050019096448546276 -0.050019254831840637 -0.050016789492910441 -0.050014984361086992 -0.050013018467608854 -0.050017572850574579 -0.050019151254607264 -0.050016735377703618 -0.050019154919020439 -0.05001880662911648 -0.050017542879127665 -0.05001778057158867 -0.050013571965182885 -0.050014347798899718
leaf_weight=0.0050087103228161336 0.010645859635537517 0.0011059987300541252 0.0021882735901861362 0.001546571096695328 0.0087537570433267632 0.0014102397257742842 0.0016905365286479599 0.0021300572278367099 0.043589382845580421 0.24967099513742141 0.24153518676757812 0.084735113575806209 0.0071840644814153204 0.016212817772258435 0.0030620713053230988 0.001415498207888288 0.15602283866388722 0.035538824121639334 0.0056959916112171412 0.0080667759842113496 0.0046488614025356504 1.2530409246744405 0.017090089048336497 0.0033501691763731705 0.0066193095288066264 0.0071402666179262156 0.029870539475242649 0.0021302575657955458 0.0043238619510310742 0.0012929143365743704
leaf_count=149 106 52 29 200 67 63 31 35 143 2 1 81 5 91 3 31 510 187 21 33 25 4129 79 19 31 34 95 7 36 85
internal_value=-1.27814 -220.829 -0.670841 -33.8905 -0.266314 -33.2282 -0.083348 -4.644 -0.0603792 -0.0904822 -0.0781719 -0.0502238 -0.0500194 -0.0501243 -0.0500381 -0.050022 -0.0500177 -0.0500176 -0.0500172 -0.0500175 -0.0500151 -0.0500176 -0.0500187 -0.0500153 -0.0500176 -0.0500176 -0.0500176 -0.0500171 -0.050015 -0.050016
internal_weight=2.21672 0.00611471 2.2106 0.0265954 2.18401 0.0120561 2.17195 0.0108838 2.16107 0.54514 0.295469 1.61593 1.53119 0.0233969 0.0250488 0.0219868 1.50779 1.35177 0.0539342 1.31623 0.0103449 1.30817 0.0197985 0.00504071 1.30313 1.29651 1.28937 0.0363247 0.00645412 0.00270841
internal_count=6380 201 6179 427 5752 169 5583 102 5481 192 190 5289 5208 96 227 224 5112 4602 189 4415 46 4382 195 50 4332 4301 4267 138 43 116
is_linear=0
shrinkage=0.05


Tree=20
num_leaves=31
num_cat=0
split_feature=14 3 14 14 2 10 14 7 14 12 14 9 15 9 17 21 4 15 4 6 23 5 27 2 24 1 7 27 24 19
split_gain=45900.4 445331 12879.8 4762.24 32428.5 1143.05 365.52 1382.17 97.0126 504.547 72.2816 1120.81 1807.5 4354.11 987.912 219.522 0.203169 0.0127712 0.00490056 2.56569e-07 8.57971e-10 1.53758e-10 1.19236e-10 2.84258e-11 1.32852e-11 8.50492e-12 7.12808e-12 4.74152e-12 4.24061e-12 3.68017e-12
threshold=1.46653417749915 0.023761265207408754 1.8127195174806547 -1.9048127316648302 0.051105614626350861 -1.1684905689225451 1.3918823850639781 -0.78503852901904903 -1.6899360014924316 0.8615007783983224 1.0856593853428775 -0.56932616977867201 -0.17552859712004526 -1.0318694841167926 -1.8371842154419378 -1.2944371337329084 -2.4155079633459398 0.7974516351228943 -1.8230066604262782 -2.0295055163075544 -1.3208180653094006 -0.77331906694851138 1.3155563758669147 1.744239694285284 2.4234934323078976 1.9999353318806308 2.4446856547206042 1.3155563758669147 1.8789144031010083 2.2721239070257262
decision_type=2 2 2 2 2 2 2 2 2 2 2 2 2 2 2 2 2 2 2 2 2 2 2 2 2 2 2 2 2 2
left_child=3 2 -2 4 -1 -4 8 -8 9 -5 16 12 -12 -14 -13 -16 -10 19 -19 -17 -7 25 23 24 26 28 29 -21 -18 -23
right_child=1 -3 5 6 -6 20 7 -9 10 -11 11 14 13 -15 15 17 21 18 -20 27 -22 22 -24 -25 -26 -27 -28 -29 -30 -31
leaf_value=-0.050016789889988533 -118.29661404151919 -1061.5354008756801 -34.240318459600296 -0.050016813757184989 -266.32465108446661 -0.050055548173485176 -44.166505475460184 -0.050016811008853183 -0.098447186736502504 -30.484562144244297 -0.050016867513607843 -49.783542211180112 -0.050016428190475706 -73.754507560637208 -11.170821025453693 -0.050346446562401115 -0.050017819899208171 -0.081667991684087393 -0.0713487315633307 -0.050016588867583325 -0.050017980085377459 -0.050016369852707535 -0.050018224779161895 -0.050018270121937304 -0.050014064498524691 -0.050019625094285307 -0.050017957655734191 -0.050018046605366406 -0.050016685886278237 -0.050017365864439139
leaf_weight=0.0087887746101652509 0.002959919230246257 0.0010833875034597087 0.002924806120631728 0.007959226818122403 0.0013144323734195504 0.0017180076611111846 0.0022667261392790702 0.0081911279657165981 0.25601261208427972 0.001642869930947242 0.012392793182256483 0.001005358034020353 0.004896279550328511 0.0033919235522759808 0.0044960777127495124 0.0068382124488835091 0.30858971444707406 0.23740330338478088 0.2232348144580702 0.036582884595120525 0.013170034068469661 0.93807362026293928 0.10040776824788711 0.020239457040810982 0.0061726531421300015 0.0064392784438770936 0.0072112947386605555 0.0065818779468147575 0.0084701645491223609 0.0093669206087159118
leaf_count=85 121 219 17 85 87 5 16 56 41 18 47 8 27 26 22 3 1097 2 56 137 87 3378 376 133 26 23 30 25 40 39
internal_value=-1.14996 -73.256 -21.713 -0.442606 -34.6925 -5.66395 -0.286585 -9.61221 -0.242404 -5.25721 -0.220495 -0.724872 -12.1384 -30.2134 -0.26755 -0.170913 -0.0574816 -0.0740618 -0.0766671 -0.0500619 -0.0500223 -0.0500169 -0.0500166 -0.0500164 -0.0500164 -0.0500178 -0.0500164 -0.0500168 -0.0500178 -0.0500164
internal_weight=2.24983 0.0218562 0.0207728 2.22797 0.0101032 0.0178128 2.21787 0.0104579 2.20741 0.0096021 2.19781 0.536824 0.020681 0.0082882 0.516143 0.515137 1.66098 0.510641 0.460638 0.050003 0.014888 1.40497 1.08147 0.981064 0.960824 0.323499 0.954652 0.0431648 0.31706 0.947441
internal_count=6332 449 230 5883 172 109 5711 72 5639 103 5536 353 100 53 253 245 5183 223 58 165 92 5142 3982 3606 3473 1160 3447 162 1137 3417
is_linear=0
shrinkage=0.05


Tree=21
num_leaves=31
num_cat=0
split_feature=16 6 20 11 16 2 8 17 1 10 15 21 3 26 3 5 27 3 19 1 4 26 20 6 19 5 27 27 23 24
split_gain=8.60618e+07 1.70096e+08 90890.9 51077.7 23143.8 1820.83 3196.33 4785.08 1825.74 913.09 540.079 1445.85 6301.11 1598.37 6187.3 12656 373.636 4182.37 933.402 125.168 0.146383 0.030657 0.0211975 4.97289e-08 1.8114e-07 1.01783e-10 8.96004e-11 3.65985e-11 4.81063e-10 1.1368e-11
threshold=2.4054360060726694 -0.35111285974335943 -1.8959905654923552 -0.012388151422950749 0.13080827527124569 1.744239694285284 0.85486463291514758 0.66195731220927823 -0.96240488129970503 -1.1905335568962727 1.049729360279744 -1.1749143683093159 0.46230465022862349 1.1360989936094996 0.33829144261072813 -0.13584915753238944 -0.53670825871187933 0.81550105986599231 -1.7516361274833481 -1.3443432384877214 -2.4155079633459398 2.5911429858410613 2.6877370016478892 -2.0295055163075544 -1.7516361274833481 -0.77331906694851138 1.3155563758669147 -1.6823023235728305 -1.5682238850329022 2.4234934323078976
decision_type=2 2 2 2 2 2 2 2 2 2 2 2 2 2 2 2 2 2 2 2 2 2 2 2 2 2 2 2 2 2
left_child=2 -2 3 4 -1 10 8 -8 -7 -10 20 12 -12 16 -15 -16 17 -13 -18 -20 -4 23 -21 24 -22 -25 27 28 -27 -29
right_child=1 -3 5 -5 -6 6 7 -9 9 -11 11 13 -14 14 15 -17 18 -19 19 22 21 -23 -24 25 -26 26 -28 29 -30 -31
leaf_value=-236.22257180637689 12854.518718117974 -6.6185959446802034 -0.094145331781062991 -440.6803165569508 -0.050016308660121613 -39.018694194097684 -117.57522149229415 -0.050017359388073238 -47.694430350676846 -0.05001739708983554 -0.050015835812202272 -0.050015818339248987 -80.905610184438899 -0.050016163633155225 -206.73182951341275 -0.050015364286919245 -47.219960548998479 -58.128060765432373 -6.5034978143947928 -0.050016036488153108 -0.050300852760498019 -0.070774247653031794 -0.079168233576907762 -0.050016893975117674 -0.050016137374106942 -0.0500370082641617 -0.050017336500618272 -0.050015592669480961 -0.050015622853335474 -0.050013203125241969
leaf_weight=0.0019053865007663262 0.0038818883022961326 0.007611995295426055 0.25390520762271296 0.0015886333712845637 0.0022769238631781263 0.0038492454122438782 0.001701762616056933 0.0017637372915476795 0.0010494409944839375 0.024077191296362557 0.010917963225987546 0.031048449283796423 0.0030919321335129901 0.010579578416019543 0.0012095887650503013 0.0019106786616744085 0.0010599970281222051 0.003443642079711747 0.0077477558446430441 0.085162621396778326 0.0071576990424016265 0.20762811373606394 0.23285435157595202 0.28275215943421694 0.025447950597616703 0.0028277494415185336 0.087120422585377444 0.79430417689612909 0.037547309659812678 0.0050087519048247478
leaf_count=64 19 34 38 98 36 30 28 14 23 138 76 140 32 56 23 21 14 38 34 412 5 12 3 1091 98 7 368 3194 160 26
internal_value=22.1106 4337.04 -1.16328 -199.324 -107.646 -0.625173 -12.3799 -57.7617 -6.95231 -2.03994 -0.442951 -2.12388 -17.8945 -1.53472 -18.2984 -80.1714 -0.8991 -5.84845 -0.376761 -0.224339 -0.0591237 -0.0529903 -0.0713615 -0.0500177 -0.0500786 -0.0500161 -0.0500158 -0.0500157 -0.0500171 -0.0500156
internal_weight=2.14243 0.0114939 2.13094 0.00577094 0.00418231 2.12517 0.0324414 0.0034655 0.0289759 0.0251266 2.09273 0.389027 0.0140099 0.375017 0.0136998 0.00312027 0.361317 0.0344921 0.326825 0.325765 1.7037 1.44979 0.318017 1.24217 0.0326056 1.20956 0.926808 0.839688 0.0403751 0.799313
internal_count=6332 53 6279 198 100 6081 233 42 191 161 5848 849 108 741 100 44 641 178 463 449 4999 4961 415 4949 103 4846 3755 3387 167 3220
is_linear=0
shrinkage=0.05


Tree=22
num_leaves=31
num_cat=0
split_feature=20 16 6 2 8 17 2 15 21 3 26 3 27 3 3 19 22 10 6 4 26 20 6 19 7 4 5 27 24 8
split_gain=310736 22215.1 53759.4 2442.77 4943.95 9017.34 2037.05 587.238 2038.6 9363.45 1919.53 9658.5 450.841 4184.46 8722.01 813.312 377.084 139.744 422.675 0.118912 0.0257118 0.0159664 4.36615e-08 1.64139e-07 1.7013e-10 2.59694e-10 9.72604e-11 8.3124e-11 9.47176e-12 8.63426e-12
threshold=-1.8959905654923552 2.1686210810864095 -0.35111285974335943 1.744239694285284 0.83987711524700037 1.0401032724187143 1.8309600561951529 1.049729360279744 -1.1749143683093159 0.20687375575533062 1.1360989936094996 0.31259477875731773 -0.53670825871187933 0.40224369069405347 0.57528868306763992 -1.5467019021859369 0.49270156172624929 -1.1905335568962727 -0.97907595097929989 -2.4155079633459398 2.5911429858410613 2.6877370016478892 -2.0295055163075544 -1.7516361274833481 -2.3773354241612599 -0.98656397842303878 -0.77331906694851138 1.3155563758669147 2.4234934323078976 1.8782746687687546
decision_type=2 2 2 2 2 2 2 2 2 2 2 2 2 2 2 2 2 2 2 2 2 2 2 2 2 2 2 2 2 2
left_child=-1 3 -3 7 6 -6 -5 19 9 -9 12 -12 13 -10 -15 -14 -8 18 -17 -2 22 -19 23 -21 25 -24 29 28 -28 -26
right_child=1 2 -4 4 5 -7 16 8 10 -11 11 -13 15 14 -16 17 -18 21 -20 20 -22 -23 24 -25 26 -27 27 -29 -30 -31
leaf_value=-600.25948177108285 -0.090239684482576882 -239.06961192498943 -0.050015219121072589 -45.111017544428321 -198.11786312532962 -0.050016617668544275 -0.050016523292611616 -0.050015094113148688 -0.050015017908100617 -117.75619187854055 -0.050015366060019641 -118.26249255895571 -41.240864634369473 -0.05001549374684764 -168.2214012650789 -28.373585622192437 -21.548485867333959 -0.050015293358795725 -0.050014836113395793 -0.050298486865440778 -0.069355463240684034 -0.076948915041228749 -0.05003515378018606 -0.050015355678908038 -0.050016109454348048 -0.05001497451028733 -0.050014832617084205 -0.050016489639070127 -0.050012660572826897 -0.050014013970666842
leaf_weight=0.0021659105247165958 0.25170263340026777 0.0033470058988314131 0.0079172102935224364 0.003328820865045763 0.0010097550075530723 0.0013335086202497313 0.016583226253818209 0.0082617115773562788 0.025855880201146524 0.002123932715392963 0.0094445284148863239 0.0021148359667628501 0.0012138618330936315 0.0021921837048734126 0.0011892629554495215 0.0017653141412513184 0.002325746978631838 0.072556588099428776 0.0051889622682832906 0.0065133286739333896 0.20143863763951242 0.22772138594154967 0.0027133614407208739 0.023909895141659535 0.26074220853497021 0.0038661301744268286 0.78125323630909582 0.082207359508652544 0.0050516193732619277 0.0050103307650530829
leaf_count=201 38 31 67 33 35 9 117 60 119 47 54 45 22 12 45 12 36 381 45 4 12 2 13 97 1049 34 3297 364 27 24
internal_value=-1.69199 -1.05015 -71.0714 -0.657475 -16.3227 -85.4011 -9.04371 -0.463392 -2.29159 -24.1217 -1.64241 -21.6775 -0.956584 -6.89059 -59.1963 -0.394106 -2.69426 -0.232722 -7.23984 -0.0586475 -0.0528547 -0.0704409 -0.0500169 -0.050076 -0.0500153 -0.0500233 -0.0500152 -0.050015 -0.0500148 -0.0500161
internal_weight=2.02205 2.01988 0.0112642 2.00862 0.0245811 0.00234326 0.0222378 1.98404 0.359628 0.0103856 0.349243 0.0115594 0.337683 0.0292373 0.00338145 0.308446 0.018909 0.307232 0.00695428 1.62441 1.37271 0.300278 1.17127 0.0304232 1.14084 0.00657949 1.13426 0.868512 0.786305 0.265753
internal_count=6332 6131 98 6033 230 44 186 5803 844 107 737 99 638 176 57 462 153 440 57 4959 4921 383 4909 101 4808 47 4761 3688 3324 1073
is_linear=0
shrinkage=0.05


Tree=23
num_leaves=31
num_cat=0
split_feature=20 14 16 6 14 15 14 2 10 14 27 20 27 8 14 14 19 5 27 2 20 7 8 8 2 5 10 10 19 23
split_gain=105930 473684 33452.6 91527.3 19721.2 203627 8400.62 34839.7 698.389 71.0854 699.957 0.10411 0.020342 0.0128387 0.00791477 6.56416e-08 1.22744e-07 8.75597e-11 7.7556e-11 1.13554e-11 8.77416e-12 5.96412e-12 6.60416e-12 4.38805e-12 2.4864e-12 2.19721e-12 1.86218e-12 2.43292e-12 1.7748e-12 1.54142e-12
threshold=-1.8438241526705677 0.49585666270012041 2.1686210810864095 0.12226952925925166 1.46653417749915 0.85529945930949436 -1.9740792819172202 -0.30053665673405722 -0.23761815021354607 -1.6491730130010007 -0.62028857649857849 1.8863622089233192 -2.2075889356873497 2.2878839353751408 1.325846788341096 1.3761719789590676 -1.7516361274833481 -0.77331906694851138 1.3155563758669147 1.8309600561951529 2.3946023503304663 2.4446856547206042 2.089115286667202 1.8782746687687546 -1.240576762646495 -0.7189778739025724 -2.0374151274726797 -2.2454451622586435 2.2721239070257262 0.84221574955806322
decision_type=2 2 2 2 2 2 2 2 2 2 2 2 2 2 2 2 2 2 2 2 2 2 2 2 2 2 2 2 2 2
left_child=1 8 4 -4 6 -6 7 -2 -1 10 -8 12 -11 14 20 17 -17 23 19 21 25 22 26 24 -14 -13 27 -19 -28 -24
right_child=2 -3 3 -5 5 -7 9 -9 -10 11 -12 13 15 -15 -16 16 -18 18 -20 -21 -22 -23 29 -25 -26 -27 28 -29 -30 -31
leaf_value=-44.548040339101057 -0.050014660816824832 -1161.7754633868706 -392.29764664937215 -0.050014442864145636 -0.050015478001291393 -698.87111059119241 -38.647867539391484 -309.16601833998345 -0.050014598284323065 -0.067024476443312248 -0.050014513218064965 -0.050015303046496741 -0.050015808134964715 -0.087359615156038628 -0.074966158699431087 -0.05029797700173666 -0.050014515307145152 -0.0500121971304371 -0.050015685208320317 -0.050015671702213528 -0.050012416639436258 -0.050015686307590304 -0.050011577009947142 -0.050013813671094844 -0.050015271653160602 -0.050014179620041538 -0.050014080184466514 -0.050013976398299631 -0.050014843250300735 -0.050013140304594084
leaf_weight=0.0011236453428864479 0.0046758078303456938 0.0010759857250377536 0.0020395279271793135 0.0054916644160027993 0.011658191274846276 0.0011447852011771892 0.0012954088106095227 0.0011322610129215387 0.0040963292749839333 0.20704209780290184 0.01259355835011533 0.0052805328940158649 0.023789720493540084 0.24499783075589221 0.22212180495262146 0.0058902104787599647 0.010860800131605137 0.0029994758787592491 0.085510009152518274 0.011342211325398699 0.0070459350327780603 0.0057244512599774469 0.0027528085960818452 0.0049197113723978827 0.23443276342728361 0.02476043249647697 0.75971608443402416 0.0053446779357289153 0.0076969784584575143 0.003691033626655571
leaf_count=52 48 67 51 47 341 87 26 91 110 60 123 24 108 2 1 5 88 41 378 116 38 29 40 27 966 106 3178 25 38 19
internal_value=-1.77623 -206.532 -1.10339 -106.275 -0.688352 -62.5355 -0.270637 -60.311 -9.62861 -0.0861109 -3.64999 -0.0597245 -0.0525831 -0.0791529 -0.0713961 -0.0500159 -0.0501142 -0.0500145 -0.0500143 -0.0500141 -0.050014 -0.0500141 -0.0500141 -0.0500153 -0.0500153 -0.0500144 -0.0500141 -0.0500133 -0.0500141 -0.0500125
internal_weight=1.92225 0.00629596 1.91595 0.00753119 1.90842 0.012803 1.89562 0.00580807 0.00521997 1.88981 0.013889 1.87592 1.37171 0.504207 0.259209 1.16467 0.016751 1.14792 0.884778 0.799268 0.0370869 0.787926 0.782201 0.263142 0.258222 0.030041 0.775757 0.00834415 0.767413 0.00644384
internal_count=6332 229 6103 98 6005 428 5577 139 162 5438 149 5289 5118 171 169 5058 93 4965 3864 3486 168 3370 3341 1101 1074 130 3282 66 3216 59
is_linear=0
shrinkage=0.05


Tree=24
num_leaves=31
num_cat=0
split_feature=20 14 16 16 17 14 15 14 2 5 4 26 8 14 5 5 27 2 24 8 20 7 20 8 2 8 10 24 27 10
split_gain=171977 395893 23633.2 68430.6 84032.5 22798 148641 7873.91 50355.6 564.517 0.0956249 0.0184897 0.00609278 5.65183e-08 1.05561e-07 7.75418e-11 6.9282e-11 1.06094e-11 7.47391e-12 6.33726e-12 4.09517e-12 4.75919e-12 4.51721e-12 3.77109e-12 2.28573e-12 2.11933e-12 1.79246e-12 1.49561e-12 1.16013e-12 1.13808e-12
threshold=-1.8438241526705677 -0.3091540901220135 2.090572320429128 2.2563107812037893 0.37228971251890092 1.46653417749915 0.12800910452759226 -1.794084099543052 -0.085480792650983739 0.24769959910919107 -2.4155079633459398 2.5911429858410613 2.2878839353751408 1.3761719789590676 1.7830776199738028 -0.77331906694851138 1.3155563758669147 1.8309600561951529 2.4234934323078976 2.1832349084875529 2.2600848492100929 2.4446856547206042 2.3946023503304663 1.8782746687687546 -1.240576762646495 1.6587566797505053 -2.1379881327132177 1.9415698192166133 1.2500651006762447 -2.2454451622586435
decision_type=2 2 2 2 2 2 2 2 2 2 2 2 2 2 2 2 2 2 2 2 2 2 2 2 2 2 2 2 2 2
left_child=1 9 5 -4 -5 7 -7 8 28 -1 12 13 -9 15 -15 23 17 18 19 20 21 26 -22 24 -12 -18 29 -26 -2 -17
right_child=2 -3 3 4 -6 6 -8 10 -10 -11 11 -13 -14 14 -16 16 25 -19 -20 -21 22 -23 -24 -25 27 -27 -28 -29 -30 -31
leaf_value=-0.050014304867814365 -0.050013511073973851 -1138.0895946210842 -0.050013860852298579 -622.25625753563497 -61.07135563833846 -0.050014909373919884 -536.69183144738315 -0.072759739860319222 -364.22301736051713 -46.144333093737146 -0.050015037933086551 -0.066887199763042998 -0.084262033194938302 -0.050013808283942397 -0.05028329786437228 -0.050011952919308891 -0.050014998926093325 -0.05001499150937419 -0.050011478122993142 -0.050011550604421896 -0.050013460208599626 -0.050014907110487811 -0.050011216900359902 -0.050013139416714814 -0.050014543233390468 -0.050013895905523159 -0.050013429876576213 -0.050013697125595551 -0.050014985042948594 -0.05001333036212896
leaf_weight=0.0017134905546924983 0.0051936468806103465 0.0010983800748363718 0.007816678792735874 0.0011250288907476145 0.001638770907353174 0.0095990254836208575 0.0014907522546340679 0.22019696804636679 0.0010983790562190477 0.0010847323549617004 0.023834234154140682 0.18898053328598496 0.24128460733709289 0.010330054511023312 0.0056057299776739447 0.0033628414113580935 0.078325724079386927 0.010582977606644617 0.0050379032472849241 0.004555025645406662 0.0045735117458560737 0.0054402718138267794 0.0044058266062734219 0.0046798357300943385 0.22583845589971019 0.004611227081536994 0.75433989586283212 0.0053465548844645319 0.0017968189206665529 0.0027064202986356841
leaf_count=54 85 142 50 48 27 235 191 39 111 33 115 17 2 88 4 43 370 116 27 49 18 29 25 28 981 18 3329 30 16 12
internal_value=-1.8547 -333.674 -1.14962 -75.661 -289.507 -0.71722 -72.1885 -0.279833 -49.5008 -17.9185 -0.0591391 -0.05239 -0.0787737 -0.0500151 -0.0501086 -0.0500138 -0.0500136 -0.0500134 -0.0500134 -0.0500134 -0.0500134 -0.0500134 -0.0500124 -0.0500145 -0.0500146 -0.0500149 -0.0500134 -0.0500145 -0.0500139 -0.0500126
internal_weight=1.83769 0.0038966 1.8338 0.0105805 0.0027638 1.82322 0.0110898 1.81213 0.00808884 0.00279822 1.80404 1.34256 0.461482 1.15358 0.0159358 1.13764 0.877942 0.795005 0.784422 0.779384 0.774829 0.765849 0.00897934 0.259699 0.255019 0.082937 0.760409 0.231185 0.00699047 0.00606926
internal_count=6332 229 6103 125 75 5978 426 5552 212 87 5340 5299 41 5282 92 5190 4036 3648 3532 3505 3456 3413 43 1154 1126 388 3384 1011 101 55
is_linear=0
shrinkage=0.05


end of trees

feature_importances:
V15=88
V21=57
V6=50
V3=44
V25=42
V9=41
V4=40
V16=40
V5=34
V20=32
V28=32
V11=28
V8=23
V13=23
V1=22
V2=19
V22=18
V7=17
V23=14
V27=12
V18=11
V17=10
V10=8
V24=8
Amount=7
V12=5
V19=5
V14=4
V26=3

parameters:
[boosting: gbdt]
[objective: binary]
[metric: auc]
[tree_learner: serial]
[device_type: cpu]
[data_sample_strategy: bagging]
[data: ]
[valid: ]
[num_iterations: 1000]
[learning_rate: 0.05]
[num_leaves: 31]
[num_threads: 0]
[seed: 0]
[deterministic: 0]
[force_col_wise: 0]
[force_row_wise: 0]
[histogram_pool_size: -1]
[max_depth: -1]
[min_data_in_leaf: 20]
[min_sum_hessian_in_leaf: 0.001]
[bagging_fraction: 0.8]
[pos_bagging_fraction: 1]
[neg_bagging_fraction: 1]
[bagging_freq: 5]
[bagging_seed: 3]
[bagging_by_query: 0]
[feature_fraction: 0.9]
[feature_fraction_bynode: 1]
[feature_fraction_seed: 2]
[extra_trees: 0]
[extra_seed: 6]
[early_stopping_round: 0]
[early_stopping_min_delta: 0]
[first_metric_only: 0]
[max_delta_step: 0]
[lambda_l1: 0]
[lambda_l2: 0]
[linear_lambda: 0]
[min_gain_to_split: 0]
[drop_rate: 0.1]
[max_drop: 50]
[skip_drop: 0.5]
[xgboost_dart_mode: 0]
[uniform_drop: 0]
[drop_seed: 4]
[top_rate: 0.2]
[other_rate: 0.1]
[min_data_per_group: 100]
[max_cat_threshold: 32]
[cat_l2: 10]
[cat_smooth: 10]
[max_cat_to_onehot: 4]
[top_k: 20]
[monotone_constraints: ]
[monotone_constraints_method: basic]
[monotone_penalty: 0]
[feature_contri: ]
[forcedsplits_filename: ]
[refit_decay_rate: 0.9]
[cegb_tradeoff: 1]
[cegb_penalty_split: 0]
[cegb_penalty_feature_lazy: ]
[cegb_penalty_feature_coupled: ]
[path_smooth: 0]
[interaction_constraints: ]
[verbosity: -1]
[saved_feature_importance_type: 0]
[use_quantized_grad: 0]
[num_grad_quant_bins: 4]
[quant_train_renew_leaf: 0]
[stochastic_rounding: 1]
[linear_tree: 0]
[max_bin: 255]
[max_bin_by_feature: ]
[min_data_in_bin: 3]
[bin_construct_sample_cnt: 200000]
[data_random_seed: 1]
[is_enable_sparse: 1]
[enable_bundle: 1]
[use_missing: 1]
[zero_as_missing: 0]
[feature_pre_filter: 1]
[pre_partition: 0]
[two_round: 0]
[header: 0]
[label_column: ]
[weight_column: ]
[group_column: ]
[ignore_column: ]
[categorical_feature: ]
[forcedbins_filename: ]
[precise_float_parser: 0]
[parser_config_file: ]
[objective_seed: 5]
[num_class: 1]
[is_unbalance: 0]
[scale_pos_weight: 999]
[sigmoid: 1]
[boost_from_average: 1]
[reg_sqrt: 0]
[alpha: 0.9]
[fair_c: 1]
[poisson_max_delta_step: 0.7]
[tweedie_variance_power: 1.5]
[lambdarank_truncation_level: 30]
[lambdarank_norm: 1]
[label_gain: ]
[lambdarank_position_bias_regularization: 0]
[eval_at: ]
[multi_error_top_k: 1]
[auc_mu_weights: ]
[num_machines: 1]
[local_listen_port: 12400]
[time_out: 120]
[machine_list_filename: ]
[machines: ]
[gpu_platform_id: -1]
[gpu_device_id: -1]
[gpu_use_dp: 0]
[num_gpu: 1]

end of parameters

pandas_categorical:[]
